conv2d_75
6 1 5 5 
-0.139105 0.0350542 0.103941 0.00570429 0.0407313 -0.0497071 -0.147543 0.0978238 0.0679861 -0.0650653 -0.160386 0.0912871 -0.0832491 -0.102912 0.0781798 -0.158006 -0.198328 0.00392125 -0.0831584 0.0531555 0.0136498 -0.0744505 -0.0384702 -0.0171745 0.126176 0.00409276 -0.0565732 0.116013 0.0849213 0.017288 -0.0235473 0.127598 -0.101948 0.0489928 0.0907701 0.0195002 -0.000324874 0.0620104 0.0116738 0.0197193 0.00489672 0.00873984 -0.00348247 0.0592267 0.0617781 0.0103978 -0.0906516 0.0562154 -0.0556523 0.0377603 -0.0157448 -0.150561 0.206849 -0.0196281 -0.0324396 -0.0886747 -0.0577813 -0.0337073 0.0459366 0.11084 -0.134489 -0.0810384 -0.0481273 -0.0915953 0.0397292 -0.0886952 -0.148211 0.00934211 -0.0847878 -0.112687 0.013679 -0.0588087 0.0219171 -0.127172 -0.0958513 0.0736239 -0.1785 -0.154594 -0.0381659 0.0502791 0.0964794 -0.0283795 -0.168626 0.13502 0.00872389 0.0938389 -0.110228 -0.120988 -0.048367 -0.0804153 -0.103377 -0.0464726 -0.100804 0.141338 0.107978 -0.209384 -0.114876 0.105804 -0.156579 -0.0125662 0.00208459 -0.146402 -0.079846 -0.0211538 0.111763 0.0690123 -0.0721464 -0.0436687 0.00866551 0.0352011 -0.0468609 -0.10199 -0.12504 -0.0440306 0.0064287 -0.0661803 0.13204 -0.132205 -0.139041 0.104011 0.0851819 -0.059629 0.08186 -0.16164 0.0571635 0.07072 -0.0913639 0.0287429 -0.115774 0.107837 0.0090458 0.00196329 -0.0316114 -0.0624064 0.0709518 0.0161798 -0.100238 0.112204 0.00257161 -0.125095 -0.0956269 0.0847069 0.00469228 0.146127 -0.123348 -0.0967435 0.0858589 0.0250632 -0.103464 -0.059959 
6 
0.00141293 -0.0192743 0.0176228 0.0154296 -0.0463388 -0.0864162 

conv2d_76
16 6 5 5 
0.0139499 0.0345961 -0.0326977 -0.0580928 0.0749372 0.0171927 -0.0283231 -0.01499 0.0360183 0.0727594 -0.0707384 0.000175937 -0.0864742 -0.0456743 -0.0610633 -0.0793801 0.0538865 -0.0316998 0.0208761 -0.0345966 0.0333459 -0.0138893 -0.0839534 0.0575055 -0.00109033 0.0523302 -0.111785 0.100209 -0.0156798 0.0575307 -0.00790525 0.0328018 -0.0662313 -0.0629286 -0.0486654 0.0261412 0.0390319 0.103382 0.0628274 -0.0748858 -0.0653256 0.0114857 -0.0447055 -0.0649908 0.0372062 -0.087207 0.0944433 0.0559891 0.0281719 -0.0415643 -0.00985643 -0.0707404 -0.0331897 -0.110447 -0.00807365 0.018424 -0.0640901 -0.0815726 0.00776337 0.0166043 -0.0911767 0.029891 0.0564927 0.082724 0.0317007 -0.0933569 0.00327892 -0.0164002 0.0906194 -0.00997522 -0.0482083 0.0182738 -0.0366569 0.0867299 0.0529495 -0.094095 -0.0866216 -0.0950881 -0.0271877 -0.0673594 0.00381297 -0.0612537 -0.124283 -0.0177707 -0.00321002 0.0169637 0.0872111 -0.0566871 -0.101512 -0.0012428 0.0162139 0.0116595 0.044278 -0.00463611 0.112332 0.00566499 0.0152083 0.148276 0.0747222 0.0286344 0.105162 0.0225116 -0.0285302 -0.00800509 -0.0959798 0.0876812 0.0702823 0.00944444 0.0983497 0.0183469 -0.0954406 -0.0425351 0.0702813 -0.0758731 -0.0429545 0.0139523 0.112934 0.000942832 0.0454159 -0.0778462 -0.0634928 0.0641026 -0.0113582 -0.0897006 0.00768633 -0.0267441 0.102923 0.030398 -0.012908 0.0527842 -0.00192056 0.0174645 -0.0184548 0.0710679 -0.0338846 -0.0297353 -0.0257615 -0.0228408 -0.0345803 0.0791746 -0.0639766 0.070106 -0.0427357 -0.0588746 -0.0228005 0.0537796 0.0466284 0.00595977 -0.0542287 -0.0740139 0.0267876 -0.0368244 -0.0774352 -0.064637 -0.0294224 0.0201839 0.0648561 -0.0302218 0.0175854 0.00518325 -0.031468 -0.0409491 0.0197595 -0.048979 -0.0816088 0.0346952 -0.16402 0.0676204 0.111768 -0.0364264 0.0396717 -0.054317 0.0480169 -0.00978622 0.00368261 -0.108046 -0.00635502 0.0390157 0.0885612 -0.0648224 0.036656 -0.0277318 0.0982451 -0.0973926 0.0751314 0.080587 0.0299476 -0.106863 -0.00367486 -0.0961978 0.0175547 -0.08671 -0.0735378 0.012694 0.0121555 0.0811512 0.0417689 -0.0387598 0.0365168 0.0275706 0.0390147 -0.00985301 -0.116638 -0.0975018 -0.0817754 -0.0329326 -0.0269518 0.0849988 -0.0102889 0.0384717 0.00445533 -0.107627 -0.0786144 0.0713994 -0.0422074 0.0823838 0.0857107 0.00564887 -0.00751237 0.124448 0.0594136 0.0924965 0.00240977 -0.0497145 0.0207267 0.0359896 -0.0258031 0.0378235 -0.0524161 -0.0249161 -0.0380031 -0.0712513 -0.0824052 0.00055779 -0.0147915 -0.0946981 -0.0765885 0.0494869 -0.0762661 -0.0900333 -0.0238047 -0.0849458 0.00933831 -0.0183335 -0.0378419 0.00654639 -0.0211861 -0.0833017 0.0271666 0.0982808 0.0075971 -0.0455008 -0.0486062 -0.0197392 -0.0418791 0.0491774 -0.119825 0.0131502 -0.0521807 -0.0355414 0.0805215 -0.0262488 0.0554504 -0.0362008 0.0328255 -0.0234425 -0.0407191 -0.0450612 -0.00846752 0.00535935 -0.0122034 -0.0420422 -0.0453538 0.0390127 0.0201586 0.0143781 -0.0641094 0.000402553 -0.110399 0.000410455 0.0418304 -0.00251013 0.080092 0.0479056 0.0429042 0.00519712 0.00484882 0.037996 -0.0235454 0.0683988 0.0381056 0.00461507 -0.0311933 0.0597088 -0.0444151 -0.0147579 0.014676 -0.0294138 -0.0341398 -0.00991297 -0.0864534 0.0227815 0.0308957 0.0796784 0.10199 -0.0578856 -0.0260837 -0.00427195 0.0342377 0.0524159 -0.0279579 -0.0508096 0.0662998 -0.0177625 0.106018 0.0662451 -0.022404 -0.0101575 0.0186556 0.052984 -0.0729156 -0.0258354 0.0124398 -0.022198 -0.0476341 0.0796221 -0.0271547 -0.057707 0.0763356 0.0238 0.0318655 0.0156137 -0.0353173 -0.0627101 -0.0368423 0.0841916 -0.0606048 0.0526361 -0.0825646 -0.0558995 -0.0137823 0.0316226 0.0917221 -0.119148 -0.0441765 0.05454 0.054945 0.0282021 -0.0743787 -0.0150371 -0.0373836 -0.0890043 -0.0899183 -0.00215791 -0.0138547 -0.0482347 -0.00864961 0.0311829 0.0877405 0.0611459 -0.0177238 0.113534 0.0810205 -0.00405414 0.0923482 0.0394158 -0.0119006 -0.0396712 0.042647 0.00490434 -0.0354822 0.00802189 0.0260371 0.0876986 0.0462354 -0.00401735 0.0791786 0.00364125 -0.0107945 -0.0606119 0.063429 0.0123564 -0.0180662 -0.0197128 0.00777338 -0.00235263 0.129712 0.0358008 0.0330802 0.0696766 0.059295 -0.0844628 0.0503616 0.00922158 0.0167657 0.0911993 0.0825214 0.0632825 -0.0218327 0.0562251 -0.0202448 -0.00269565 0.0325095 0.0554997 0.0777107 0.0590039 -0.0282047 0.0472827 0.0728981 0.115596 0.0717197 -0.0842219 0.064186 0.0973062 0.046191 -0.0315047 0.0349665 0.0396393 0.058558 0.0356518 -0.00391214 -0.0771331 0.0226151 -0.00571244 0.00718924 -0.00813543 -0.0661529 -0.0671725 -0.0764511 0.00630507 -0.037924 0.0578505 -0.0717488 0.0193066 -0.00862115 -0.0124764 -0.00566061 0.00859482 -0.0222714 -0.0571355 -0.040525 0.083873 0.0115873 0.0481581 -0.0643713 0.0428911 -0.0261265 0.0829802 0.017836 -0.0339807 -0.0690269 0.0134271 -0.0513424 -0.0354375 0.0159086 -0.0423152 -0.0478734 -0.0808822 0.0222769 -0.0152232 -0.00596457 -0.0519377 0.0103254 -0.0671081 -0.0107947 -0.0102423 0.0553368 0.0537696 -0.0558909 -0.0454189 -0.0766932 -0.0514503 -0.014662 0.00292064 0.00415738 0.0225912 -0.00382975 0.0636197 -0.0836536 0.038786 -0.0912212 0.0683878 0.0120389 -0.0826992 0.0888222 -0.0262749 -0.0250709 0.0670729 -0.0437937 0.0257275 -0.0206791 0.0606294 0.0526043 0.0962212 -0.0378945 0.0788454 0.022218 -0.0973902 0.056567 -0.0297741 0.0447377 -0.0732838 -0.0794478 -0.0120867 -0.030847 0.0781422 -0.128141 0.0790263 -0.0798399 -0.0827704 -0.0852453 0.073947 -0.00806828 0.145529 -0.0912381 0.0110626 -0.0224304 0.0433258 0.0728808 0.0884752 0.0377657 -0.0188395 -0.0624851 0.0457162 0.00388723 -0.0383879 -0.0957285 0.0292868 -0.0849201 -0.0973148 -0.0299753 0.0372166 0.074378 -0.0437055 -0.0387304 0.0115995 0.0285415 -0.00660047 0.0158697 -0.085431 -0.0682164 -0.0545895 0.0407394 -0.0350971 -0.0031926 0.0369708 0.0593842 -0.0645881 -0.0813353 -0.0807629 -0.0591124 -0.00100522 0.0349092 -0.0979145 0.0128225 -0.0681342 0.0232733 -0.00182389 0.0770613 -0.0172291 0.0382409 -0.0685555 -0.0431901 0.0519093 -0.0587747 -0.00726523 -0.0889214 0.0286555 -0.0743259 0.0504426 -0.0519433 -0.0947533 0.0295185 -0.100055 -0.0692214 0.00317005 0.107012 0.11301 0.0593187 -0.00710708 -0.00802197 0.0102681 -0.0161497 0.0364534 0.0396621 0.0101881 0.0122004 0.0233143 -0.0737998 0.0108473 -0.0495954 0.0232921 -0.0245047 -0.0250711 -0.0584748 -0.0232383 0.0582532 0.101593 0.0466127 0.071132 -0.0392296 0.0149581 0.00857778 -0.00739654 -0.0306663 -0.0326732 0.0206731 0.00477759 -0.00533603 -0.0233868 0.0218395 -0.0490949 -0.0241678 0.0560061 0.026659 0.00259874 0.030951 -0.0190072 -0.064502 -0.00662522 0.0300026 0.00664605 0.0653366 0.0119398 0.0374693 0.0435055 0.0980323 -0.0356446 -0.059725 -0.0831796 0.0817216 -0.0189977 -0.0301268 -0.00909232 -0.00228734 0.075599 0.0395242 -0.0117389 0.0655617 -0.0256665 0.0140443 0.0530445 -0.106213 0.087468 -0.0763811 0.0351714 -0.0480693 0.0263447 -0.0127481 0.0555103 -0.112266 -0.119303 -0.0485835 0.114157 -0.0432784 0.0284685 0.0284297 -0.0621479 0.0263327 0.0244031 0.0188164 0.0458149 0.0644646 0.0184647 -0.00841706 0.0250015 -0.0268168 -0.0217828 0.0339939 -0.011708 0.0983051 0.0423035 -0.0713209 -0.00144742 -0.00427901 -0.0653457 0.00573299 0.0449211 0.0160351 -0.0949396 0.0142054 0.00841937 0.00421681 -0.0350209 -0.0469542 0.056461 -0.0835378 -0.0591377 -0.0804799 -0.0342312 0.0180169 -0.0723945 -0.0781741 -0.041925 -0.0291694 0.0355146 0.00896394 0.00175047 -0.0493211 0.0728828 0.0711502 -0.0890986 0.0376141 0.0256953 -0.0161841 -0.0820029 0.0342853 -0.0442198 0.0172657 0.0537318 0.00451293 -0.0657079 -0.0115874 0.0777694 0.0471702 -0.019086 0.0570908 -0.135415 -0.0574749 -0.0272806 -0.0747881 -0.0286156 0.0222171 -0.129121 0.0634903 -0.0241499 -0.00201697 -0.0337302 0.0298132 0.0141605 0.0344052 0.018523 0.0508571 -0.0426535 0.067821 -0.0288244 -0.0323802 -0.0333092 0.0827769 0.0216413 -0.114401 0.000660683 -0.0483369 0.0581864 0.0461802 0.0029791 0.00934045 0.0183097 0.0816952 0.0926708 0.00131173 -0.00519603 0.0787002 0.0774146 -0.066333 0.070593 0.0134106 -0.0204743 -0.0726734 -0.0358513 -0.0898266 -0.110725 0.0695029 -0.09759 -0.0336564 0.0535437 -0.0298288 -0.104995 0.0822055 -0.042488 -0.00216731 0.0138855 0.0409439 -0.0269572 0.0520046 -0.0724109 0.00460555 -0.0478117 -0.077266 -0.0892837 -0.107257 -0.116972 -0.0307694 -0.110453 -0.0922027 0.0214637 0.0558403 0.0288288 -0.0900896 -0.0514822 0.0836622 -0.0831429 -0.0207914 -0.102325 -0.0643344 -0.0827959 -0.115041 0.051162 -0.0956694 0.0159183 0.0952094 -0.0629642 0.0564501 0.0827273 -0.0786882 0.0732144 0.0589244 0.0102081 -0.00856709 -0.057486 0.0762952 0.0122429 -0.00313753 0.00662226 0.0590575 -0.0775519 0.0259852 -0.0259865 -0.0960243 -0.0547029 0.00766872 0.0867725 -0.0274963 -0.07185 0.0573993 0.0714975 -0.0124224 -0.106609 -0.0637561 -0.0325515 -0.0578091 0.0647073 -0.0446414 0.0084466 0.101951 0.0689432 0.0827114 0.0736853 -0.00121592 -0.0897834 -0.0858866 0.0310395 0.0423267 -0.054976 0.049394 -0.0868675 0.0792028 -0.0245851 -0.0504511 0.0756757 -0.0771552 -0.0163746 0.00121825 0.083378 -0.0708818 0.0077707 -0.0116333 0.0308404 0.06174 0.0955076 0.0561427 -0.0183358 -0.0191833 0.0220135 -0.00969358 -0.00582481 -0.0368485 0.0325949 0.0368136 -0.103596 0.0207671 0.0383989 0.134718 0.0356732 0.106775 0.104786 -0.0945007 -0.00568159 0.0178271 0.0402555 -0.0725685 0.0625692 0.081062 0.0655711 -0.0292298 0.105885 0.0466316 -0.0780359 0.000723773 -0.00883831 0.0260991 0.102017 0.0415151 -0.0466701 0.0280052 0.0781052 -0.0203304 -0.0545072 -0.0208727 -0.0506989 -0.0196116 -0.0783779 -0.00478926 -0.0363355 -0.00229027 -0.0455272 -0.0268774 -0.0985883 0.038168 0.0681881 0.0726697 -0.0594503 0.0563742 0.0432853 0.0838695 0.0300588 -0.0470956 -0.0317953 -0.0699107 -0.0325415 0.0227935 0.00473372 0.0961925 -0.0512913 -0.0738832 -0.0709755 0.0933093 0.0337709 -0.101183 -0.0484957 -0.0565657 0.0782723 0.0559008 0.00645755 -0.0369539 -0.0906419 0.0698662 -0.00387105 0.081759 0.0655683 0.0774115 -0.0486298 0.0196025 -0.000908173 -0.0180978 -0.0407656 -0.0593997 0.0696126 0.0272725 -0.070898 -0.0030296 0.0455408 0.0101239 -0.0868251 0.0694581 0.0362149 0.0438079 0.0153514 0.0944846 0.0336852 0.00154198 -0.0913016 0.0321552 0.0681714 -0.00992142 -0.0114473 0.114926 -0.0799508 -0.0965512 0.0570075 0.0779383 0.0732234 0.0535868 -0.0301873 0.0232284 -0.0787143 0.0177482 -0.122896 0.00568027 -0.0225777 0.00621017 0.02822 -0.0342404 -0.0603496 -0.0815013 -0.0593666 -0.0773083 -0.0346201 0.02254 -0.084396 -0.0387315 0.0817509 -0.092372 -0.0236872 0.011206 -0.0581851 -0.0659578 0.00308021 0.129261 0.0345289 0.000552397 -0.0729892 0.080164 -0.0749387 0.0448887 -0.00304073 0.0644435 0.13267 -0.0454389 0.00142814 0.0539355 0.0191422 -0.0178552 0.0865647 -0.0553503 -0.00591661 -0.0127697 -0.0319482 -0.0369966 -0.0697843 -0.0605604 -0.0468956 -0.0327964 -0.0586885 -0.0132657 -0.0205166 -0.028949 0.000597323 0.0164308 0.0149776 -0.0713924 -0.0841477 -0.107716 -0.00076367 0.0621512 -0.0266528 0.0751166 -0.0227377 0.0348285 -0.0141007 0.016327 -0.0322434 0.0708186 0.0719863 0.0244802 -0.0666282 -0.0660657 0.0855834 -0.000482729 0.0952739 0.098877 -0.0330527 -0.00372777 -0.101552 -0.0092118 0.0909933 0.0185624 0.0225109 0.0702178 -0.101009 0.0271735 -0.0912035 -0.0201064 -0.109421 -0.0876227 -0.0184557 0.00502798 -0.0863287 -0.103219 -0.070213 -0.0570553 -0.0170138 -0.0938406 -0.0607876 -0.0618488 -0.0967272 0.0728763 0.0646686 -0.0633211 0.0789315 -0.0444469 -0.0460942 0.0085742 -0.0496719 -0.0633035 0.07131 -0.095771 0.0375966 -0.00938675 -0.0700526 -0.0892909 0.0256026 0.0547329 -0.0218166 0.053907 0.0871348 0.0683879 0.0453343 -0.0423497 -0.00332407 -0.0275389 -0.000889993 0.0219977 -0.0510413 -0.0385578 -0.10785 -0.101126 0.0292078 0.0640194 -0.0537238 0.00155912 -0.0197239 0.0889089 -0.0540228 -0.138509 0.0514351 -0.0452199 0.117802 -0.0616287 0.0930384 -0.0272632 0.0631878 0.0160971 0.0665255 -0.0270425 -0.0175329 0.0553627 0.00888897 -0.0566036 -0.0419119 0.0661754 0.0019017 0.0158995 0.0440936 0.0342551 0.060906 0.0529217 0.0637777 -0.0422681 -0.00680462 0.013819 -0.00129763 0.0141959 0.0528285 -0.0128927 -0.0190633 -0.0156899 -0.0982604 -0.074673 -0.00720416 0.0284797 -0.108095 -0.042318 -0.113127 -0.0752619 0.02807 -0.089889 0.0858845 0.0578734 -0.0563693 0.089354 0.0247138 -0.0462808 -0.00276138 -0.0362236 -0.0415516 0.040629 -0.164798 0.00922964 0.0400183 -0.0348497 -0.0437408 0.00975313 -0.0270231 0.0530456 -0.0146123 0.085615 0.0811105 0.0143073 0.0812478 0.0371394 0.057788 0.0839657 0.0830312 -0.100068 0.0887119 0.135608 0.0718428 0.0846949 0.0473972 0.0219039 -0.0365735 0.000472189 -0.0767233 0.00141477 -0.0335331 -0.0884522 -0.145441 -0.0630215 -0.0139618 -0.0775076 -0.036755 -0.0620196 -0.111041 -0.0533945 0.0115246 -0.0431007 -0.0542166 -0.0135605 -0.0817611 -0.00805068 -0.0833222 0.0256318 -0.119328 0.0689247 0.0308379 0.0552767 0.0732166 -0.0169023 -0.100329 -0.0211068 0.0649083 0.0819392 0.0532202 -0.0470111 0.0705427 0.0450551 0.0127874 -0.045395 -0.0856791 -0.0561067 -0.0769561 -0.0271067 -0.132196 -0.119197 0.0181085 0.0178227 -0.0741016 0.0572797 0.0511014 0.097382 -0.0116829 0.00906526 -0.0727294 -0.0952705 0.0809279 0.0792773 0.0338717 0.0586545 -0.0360976 -0.00984492 -0.0488223 -0.0726531 0.0333829 0.0311976 0.0444592 0.0563572 0.0556448 0.0673829 -0.0621518 0.0668842 0.0953432 0.0961542 -0.00727132 0.0434089 0.112496 -0.00979813 0.0590911 -0.0785468 -0.0262481 -0.0213498 0.0118764 -0.0179674 -0.0121057 -0.00663119 0.0101674 0.017579 -0.00429466 0.0152601 0.102301 0.0501389 0.0283179 -0.093249 -0.0449284 -0.00506204 0.00470249 0.0492285 0.0321251 -0.0544175 -0.0240545 0.0543655 -0.0578676 -0.118404 -0.198778 -0.0913649 0.0539531 -0.0492475 -0.0103114 0.0306551 -0.140572 -0.0255478 -0.0777218 -0.0551584 0.0182127 0.00437931 0.0085226 -0.0234181 -0.0873086 0.0588004 -0.0312591 -0.0377827 0.00584197 -0.00293736 0.0863365 0.0413841 -0.12535 0.00748199 -0.0912041 0.0874822 -0.0608465 0.0516781 -0.0141651 0.0218224 -0.107489 -0.00944417 -0.0482839 -0.0679798 -0.0216426 -0.00184831 0.016011 0.0266863 0.030323 -0.0334321 -0.0584869 0.0117968 0.0536672 -0.0981387 0.0398923 -0.0103084 -0.0762856 0.0995678 0.0271531 -0.00762634 -0.0233847 0.0239154 0.0825521 -0.0275874 0.0466492 -0.0747764 0.0269802 -0.0352707 -0.035392 0.0726637 0.04673 -0.0862251 0.0151999 0.0169411 -0.00176542 -0.0639615 -0.0594305 -0.00696089 0.100832 0.034938 0.0447852 -0.0215777 -0.0385137 0.0511408 -0.0464168 -0.0141446 -0.0130144 -0.0473128 -0.0175294 0.0420149 0.0161674 -0.0585719 0.0132568 0.0831938 -0.0310986 0.0386019 -0.0294526 -0.0212105 0.0210766 -0.0267453 0.0662209 -0.00642332 -0.073239 -0.0398926 0.0474414 0.0656993 -0.0651598 -0.0626941 0.0146794 0.0535172 -0.0351603 0.0878913 -0.12658 -0.0383941 0.0503767 -0.0374162 -0.00385641 0.0530696 -0.027126 -0.0417525 -0.0463322 -0.087956 -0.0803485 -0.0174602 0.089536 0.0845352 0.0304202 -0.0972039 0.0479211 0.0636293 -0.00826144 0.0828952 0.0644266 -0.0200454 0.103814 0.0312675 0.0148976 -0.0519754 -0.0700338 -0.000555466 -0.0204488 -0.0861757 -0.0416896 0.0378359 -0.0952554 -0.0612873 0.0146387 0.0990489 0.0301166 0.0255692 0.0800018 0.0991251 0.040755 -0.00498663 0.0564386 -0.00509751 0.0568753 -0.0178497 -0.0427375 -0.0615768 -0.0507788 -0.0733427 0.0721072 -0.00980352 -0.0715538 -0.0271204 -0.139574 -0.00750331 0.00523778 0.0771104 0.0522173 0.0232296 0.0664659 0.116452 0.039311 0.0482191 -0.0071863 0.0165061 0.0316963 0.0572079 0.003381 0.113624 0.136721 -0.016063 0.0208838 -0.0292852 -0.0438806 0.091238 0.00524273 0.0632076 -0.0116735 -0.0473684 0.044247 -0.0980094 0.0569936 0.052347 0.0854976 0.00808382 -0.009087 -0.0311874 -0.0638124 -0.0216083 -0.057776 -0.0210387 0.0436147 0.0263528 -0.0437991 -0.0519786 -0.0579878 0.00165268 0.0378958 -0.0197195 -0.0373927 -0.126024 0.0444235 0.0484239 -0.0589036 0.0611353 0.0623929 0.0916021 0.0951478 0.0943838 -0.014815 -0.0746536 -0.0510933 -0.0219832 -0.0270206 -0.0390231 -0.0262028 0.0396663 0.116582 0.0610301 -0.0203394 0.0609157 0.023421 0.140405 0.0588765 -0.0690501 -0.0665751 -0.0440633 0.00326712 -0.049478 -0.098273 -0.076643 -0.0913398 -0.0900514 0.076511 -0.0263214 -0.0472561 -0.0948375 0.0196025 0.0369913 -0.107135 -0.0226012 0.0671752 -0.0488657 0.0103927 0.0212053 -0.0985814 0.00973403 -0.0202106 0.000494952 0.0873106 0.0381111 0.0227527 0.00436361 -0.0284635 0.0512292 0.0866207 0.0750841 0.00217893 0.081339 -0.0174819 0.102391 -0.060619 0.0762163 0.00301185 0.0415682 0.159763 0.012747 0.0269241 -0.0466901 -0.0475712 0.106426 0.12171 -0.00920919 0.0125585 0.0708382 0.101023 0.0850827 -0.0171225 0.0594881 0.00300046 0.00462802 -0.0333892 0.0179777 -0.00350781 0.0387432 0.0516837 -0.0462904 -0.0466074 0.0369373 0.0917284 0.132526 0.0864831 0.0101554 -0.00754711 0.0339305 0.0256876 0.0225697 0.0743844 0.0862345 0.0189772 0.053818 0.0634036 0.123617 0.0191404 0.0370261 0.0329611 -0.0954646 0.08338 -0.0368383 -0.0447935 0.032817 -0.0807852 -0.04256 -0.0315907 0.0108175 0.144419 0.144676 0.0971755 -0.00986481 -0.0324568 -0.0491945 0.0511848 -0.0455154 0.0025319 0.0768052 0.0124959 0.0932152 -0.0374797 0.0517619 -0.0756872 -0.0198961 -0.0183037 -0.0629111 -0.03499 -0.0568708 -0.0809043 -0.0182906 0.0452045 0.0472495 -0.01391 0.0369648 0.0706811 -0.0175152 -0.0453873 0.0297729 0.0019557 -0.0296498 -0.0718168 -0.0221936 -0.00509664 -0.012637 -0.0456646 -0.0233727 0.0160139 -0.0637849 0.0285804 -0.00954054 0.0417768 -0.0262803 -0.0762915 0.044887 0.0434181 0.0838977 -0.0377751 -0.00921071 0.0559428 0.102253 -0.0416245 -0.0359988 0.0346548 0.089524 0.0593063 -0.0129371 0.0336201 -0.00214017 0.0770925 -0.0586035 -0.0565104 -0.0528353 0.0998413 0.116127 -0.0104161 0.07562 -0.106766 -0.108037 -0.0800149 0.0754313 0.0608699 -0.0208207 -0.0131727 0.0509744 0.0128944 0.0396842 -0.0876347 -0.000598238 -0.0676531 0.0721704 -0.0666984 0.0259733 -0.050476 0.0647122 0.0423293 -0.0355674 -0.0986043 -0.0574716 -0.00583234 -0.0457515 -0.0229829 -0.0244275 0.0231746 0.00471529 0.0061806 -0.0821155 0.0730256 -0.0253608 0.0596774 -0.0745914 -0.0113702 -0.0590852 0.0373164 -0.00586409 -0.0956593 -0.00946999 0.0116619 0.019711 0.0261411 -0.0552754 -0.094149 0.0146128 -0.0109826 -0.114157 -0.122892 -0.0956255 -0.0935915 -0.0709662 0.0854073 -0.0459938 -0.0191449 0.0979065 0.0396919 0.0280498 0.0925099 0.0756728 0.0551312 0.0517473 -0.0665817 -0.0214549 0.0355978 0.0990488 0.0815155 0.0154537 -0.0763158 0.0514161 0.0366602 -0.0214578 -0.0291711 0.00200128 -0.05273 -0.0556788 -0.109973 -0.0293779 -0.0397296 0.0941953 0.0315138 -0.0767648 -0.0691744 -0.0225512 0.0539184 0.00672822 0.0268433 -0.111936 -0.0525881 -0.0173965 -0.0499809 -0.0556588 0.0486537 0.0961314 0.0632279 -0.0525756 0.0234227 0.0135293 -0.0569079 0.0361537 0.10154 0.00965315 0.0397364 0.0632605 -0.0312177 -0.0162091 0.100873 0.0118869 -0.0580698 -0.0427463 -0.0378595 0.0788885 0.0317629 -0.0333626 0.0312913 -0.0420931 0.00508124 0.0654113 -0.0261611 0.044473 -0.0947424 0.0760745 -0.00890487 0.0123051 -0.0671129 -0.0369517 -0.0495067 0.00268098 -0.0964714 -0.0407251 -0.0230891 0.0176228 -0.0304233 0.112173 -0.0755878 -0.000599411 0.00640414 -0.0440059 -0.0161104 -0.0890586 -0.00299522 0.0569079 0.075764 -0.0888779 -0.0432274 0.0737664 -0.0347305 0.112248 -0.0396363 0.113782 0.0700637 0.0814517 -0.00247244 -0.0484767 -0.0485048 -0.0219479 -0.0526454 0.0900762 -0.0460864 -0.122675 0.0910301 0.055952 -0.113419 0.0214749 -0.141072 -0.124398 -0.0971273 -0.0570516 0.0548804 0.0248083 -0.0492653 -0.00559114 -0.135524 -0.0848872 -0.143507 0.0262255 0.0166522 -0.0328401 -0.0607 -0.020017 -0.0606208 -0.0471251 -0.0267361 -0.0734713 0.0215307 0.062966 -0.0253734 0.125338 0.103247 -0.0297803 0.0988894 0.0835834 -0.0192763 0.076393 -0.0726759 0.162782 0.00463367 -0.0433433 -0.0681139 -0.0306798 -0.0505281 0.0217828 0.0076984 0.0394939 0.0698806 -0.0485612 -0.0560428 0.0911082 0.0302567 0.0992544 0.0767298 0.0826542 -0.0171182 0.0721363 0.094878 0.0628553 -0.0227237 0.0543931 0.0502236 -0.0390697 0.0793603 -0.0519055 0.124451 0.0462789 -0.0155436 -0.000650627 -0.058633 0.0337127 -0.0371922 -0.114637 -0.00867105 -0.0676579 -0.0683476 0.013317 0.0583776 -0.000810192 0.109304 0.0822184 0.0506672 0.0866269 0.033082 -0.110526 -0.0464051 -0.0477455 -0.0284158 -0.0434099 -0.064443 -0.0493333 0.0289757 -0.00738113 0.00812489 -0.0427886 -0.0325122 -0.065994 -0.0939746 0.015513 -0.0668353 -0.0394646 0.0843264 0.0808828 0.0478301 0.0556249 0.058683 0.0861367 0.15986 0.00242984 -0.0468521 0.00710105 -0.0706095 0.00871576 0.0399882 0.0893455 0.030195 -0.0885971 0.00544628 -0.028299 0.0992596 0.0680785 -0.0147048 -0.080282 -0.0124661 0.0441496 -0.0352472 -0.0402682 -0.0573379 -0.0331612 -0.0391672 -0.0533601 -0.0459313 -0.0173359 0.0716976 0.00821936 -0.0107871 0.0200286 0.0762565 0.0401797 -0.0997068 0.000389379 0.0399315 0.0757804 -0.0467265 0.0772246 -0.0411672 0.0053446 0.0040434 -0.0765856 -0.0406511 0.104554 -0.0115312 -0.0328685 0.0168291 -0.099879 0.0559214 -0.00810353 -0.10383 -0.0342885 -0.0266175 0.0281916 0.0868617 -0.045452 0.0584745 -0.0110625 -0.0483982 -0.0842238 -0.0729336 -0.0617025 -0.111992 -0.0543499 -0.0998201 -0.0990734 0.0183633 -0.0102713 -0.0409417 0.0363467 0.00666304 -0.0487688 -0.0580192 0.0192606 -0.029372 -0.0730236 -0.0213925 0.00808088 -0.0399798 0.0529071 0.0507154 0.0684987 -0.0232959 0.020448 0.0570452 -0.00355722 -0.030644 0.0158231 -0.00906737 -0.00894126 0.028794 0.0208925 -0.00850702 0.0592457 0.0120107 0.0652002 0.0218934 -0.0431841 -0.0263904 0.0670722 0.102669 0.0474089 0.00599409 -0.0689385 0.0913349 0.113332 0.0543792 -0.0302225 0.074917 -0.0154171 -0.102745 0.0212179 0.0595417 0.0719647 0.0435558 0.0696987 -0.0410074 0.0617145 -0.0579509 0.0066949 0.0458771 -0.000922437 0.0531393 0.0609125 0.0656088 0.0400488 -0.0957707 0.0586078 -0.0336934 -0.0765134 -0.0502436 -0.130237 0.0658579 0.0172226 -0.0562037 -0.01013 -0.0225859 0.0454935 -0.0226675 0.0629065 -0.0701313 0.00856697 -0.0168938 -0.0619245 0.0526218 0.101482 -0.0599791 -0.0674851 -0.0558624 0.0240321 0.0077786 0.0108077 -0.0346554 0.0503725 0.0112392 -0.0262912 0.0320809 -0.112117 -0.140903 0.0483018 0.0161068 -0.103346 -0.0281635 0.0174148 -0.0818829 -0.00310825 0.0456136 -0.134059 -0.0464249 -0.0151214 -0.0809321 -0.018769 -0.0320477 -0.0489902 0.033988 -0.0363436 -0.0223689 -0.0797993 0.0229232 0.00250689 0.0802793 -0.0111506 0.0497217 -0.0372488 -0.0327421 0.00235009 -0.0312815 0.04682 -0.0921398 0.0601084 0.0647473 0.030034 -0.0402763 -0.0329226 0.0865819 -0.0580781 -0.011626 -0.108408 -0.0368524 0.106569 0.0791782 -0.105749 0.0209605 -0.0474879 0.02387 0.0558241 -0.00145701 -0.0789501 -0.00137823 -0.0475045 -0.0159288 0.00993727 -0.0146513 -0.11212 0.0165948 -0.0468205 0.0736037 -0.06102 -0.136668 -0.0550532 -0.0393024 -0.041035 0.0415398 -0.00942163 -0.078641 -0.0455417 0.075454 -0.0290397 -0.0900549 -0.0317784 0.0777354 -0.0464112 0.0427464 0.025486 -0.0563912 0.0575843 -0.0832669 -0.0705497 0.0286252 -0.0247806 0.131366 0.059114 -0.0710268 0.00395891 0.0656467 0.0124608 0.0251322 -0.0622306 -0.115414 0.0333073 0.0486379 -0.0146568 -0.0244194 0.00440683 0.0408513 -0.0124155 0.0579754 0.0660966 -0.03825 -0.0436085 0.0228501 0.0342776 0.0334269 0.024942 0.101184 0.0139788 -0.0787018 -0.110693 -0.000249058 0.0407643 0.116682 -0.0351086 0.0120015 0.0662505 -0.0510943 -0.000769029 0.0219159 0.0399187 0.044756 -0.0452023 0.0449092 0.0554755 -0.0258432 0.0213764 0.0511851 0.093898 -0.0441145 0.0669559 -0.0150944 0.0774943 0.0431462 0.0306065 -0.0284255 0.018818 -0.0631251 0.0767781 0.0228226 0.0612999 -0.044867 0.0342443 -0.0632889 0.0447897 0.0737024 0.0458767 0.0429843 0.0683985 0.0544429 0.0153181 -0.0192386 0.0640804 -0.12213 0.0210582 0.0212745 0.0939887 -0.0287647 -0.0152491 0.100604 0.0604096 0.0592783 -0.0638925 0.0539642 0.0347514 0.0458834 0.0797712 -0.135137 0.0552154 0.0737678 0.0655534 0.0985847 0.0290488 -0.0488998 -0.0227826 0.0398426 0.052514 0.067848 -0.0763928 0.0604207 -0.0700319 0.0671322 -0.0807504 -0.10771 -0.0727822 0.024966 0.0220172 0.00224123 -0.0283819 -0.0628446 -0.0151389 -0.0253372 -0.0969264 -0.0658749 -0.0548144 0.0178652 0.0577718 0.0535278 -0.096131 0.0440736 -0.000968697 -0.121691 -0.0193372 0.0222403 -0.0427066 -0.0803978 -1.44882e-05 0.0216341 0.0408958 0.0340578 0.0112929 0.0253312 0.00114873 -0.0133801 -0.0210496 -0.016615 0.0475926 0.107763 0.0508059 0.0332807 0.00506895 0.0841336 -0.0568334 -0.0802018 0.0351554 -0.00193128 -0.0291546 -0.0348058 -0.0647359 -0.024561 -0.051501 0.0217154 0.111575 0.00523162 -0.116732 -0.0606951 -0.013243 -0.0536723 0.0305522 0.065919 0.0153316 -0.0436862 -0.111704 0.0443115 0.00342387 0.0835619 -0.0207005 -0.00675406 0.0176518 0.0542132 -0.0724836 0.111563 -0.0180458 0.000975878 0.0148368 0.0366323 -0.0401671 -0.0675213 0.0232614 -0.0868619 -0.0420629 0.0886688 0.0417518 -0.0518209 -0.0849447 0.091838 -0.0306721 -0.0547553 0.0373652 0.00480962 0.0187251 0.0933166 0.0572753 -0.0061364 0.0758378 -0.0603618 -0.0793758 0.0449378 -0.0835985 -0.0183133 0.0119579 0.0119879 -0.0244457 -0.0565594 -0.00524737 0.0479069 0.0168893 0.0546701 -0.0895202 -0.06633 0.0289952 -0.0652502 0.0106692 -0.0823138 0.0261431 -0.005904 0.0493448 0.0526469 -0.0982492 -0.00884806 
16 
-0.0288197 -0.0138485 -0.0285668 -0.0273502 -0.0556075 0.0790347 -0.0433948 -0.0447443 0.00155639 -0.0234259 -0.0239141 -0.0317412 0.0317774 -0.0681564 -0.0649786 -0.0274161 

dense_97
120 256 
-0.043938 -0.0345679 0.0785987 0.100222 0.0720003 -0.0251138 0.0594716 -0.0530396 -0.0559098 -0.0890516 0.0871342 -0.0410079 -0.0406616 0.0672555 -0.0242787 -0.0906216 -0.112644 -0.0617904 -0.0621083 -0.0543491 -0.115603 -0.0413919 -0.0805429 -0.0473949 -0.111204 0.0836684 -0.0816433 -0.0647016 0.0383543 -0.0260775 -0.0227086 0.018629 0.0846811 0.0849777 0.0234397 -0.0601285 0.0475827 -0.0551275 -0.00360183 -0.120502 0.0285348 0.111189 0.0197603 0.126079 0.108527 0.0138191 0.0763482 0.12739 0.0419572 0.0179393 0.0631698 -0.0144841 -0.126506 0.00650683 0.0404198 0.0017703 0.00266295 -0.130341 -0.0193515 -0.0515848 0.1227 0.0196333 0.120023 0.0637563 -0.02887 0.0197947 -0.0779626 0.108554 0.14684 -0.0965456 0.023835 0.0169113 0.06434 -0.0279374 0.0953119 -0.0662787 0.121671 0.0165192 0.0390554 0.0833716 0.0667645 -0.119841 -0.0358107 0.00190771 0.119178 0.0465285 0.121035 -0.130176 -0.092947 0.145961 0.0117022 0.0448599 0.0733545 0.0551601 0.0697182 -0.0511933 0.0895163 0.125353 -0.024742 0.083964 0.0884622 0.0730142 -0.0954784 0.012257 -0.015737 -0.00604406 -0.0652758 -0.0687519 -0.09924 0.0485068 -0.0957132 0.0229938 0.0771436 0.0873297 0.0827618 0.0761279 -0.0442542 0.0348731 0.00842536 0.0494456 0.0906193 -0.0700179 -0.0193511 -0.123175 -0.0022508 -0.000489063 -0.0596392 0.00827804 0.0715646 0.0113381 0.0242867 -0.0166845 -0.00425596 -0.120469 -0.104122 0.0452605 0.0422731 -0.112009 -0.0108151 0.0207488 -0.0730852 -0.122622 0.124022 0.141127 -0.0225757 0.0138719 -0.0972828 -0.0444997 0.0159982 -0.106528 0.0539807 -0.100023 0.121257 -0.0620324 -0.0896142 0.082283 -0.0596794 -0.0617277 0.0647111 0.100626 0.0592893 0.011532 0.00587765 0.0821387 -0.0494448 0.0221887 -0.0760805 -0.00945335 -0.0916349 0.0751418 -0.0403733 0.119656 0.141615 0.12093 0.1338 0.0448586 -0.0289101 0.114581 0.0165638 -0.0682104 0.00904186 0.0453297 -0.0489938 0.0376867 -0.0719859 0.0411728 -0.0855625 -0.0683666 -0.0429673 -0.0298456 -0.0937391 -0.0147473 0.0378918 -0.0430123 -0.071218 -0.0102285 0.0672477 -0.0441204 -0.161591 0.110715 -0.0506828 0.0312914 -0.0381062 0.0231127 0.0640956 -0.0881541 -0.0513663 0.0935897 -0.136179 0.00200092 0.00292707 0.0522989 -0.056229 0.0345306 0.0803137 -0.118021 -0.0275177 0.0145363 0.0845037 -0.00763753 -0.133162 0.0937973 -0.0434033 -0.139602 -0.0196935 -0.0405875 -0.13109 -0.0567824 0.0929703 -0.0486843 0.0444383 -0.0509949 -0.113282 0.0137266 0.0221591 0.00606479 -0.0437661 0.0484678 -0.139559 0.0590156 -0.00402672 -0.0161131 0.0489785 -0.0863991 0.0650388 0.116648 0.0318878 -0.116378 -0.0195716 0.0536465 -0.11507 -0.0329664 0.00629282 0.0939703 -0.0727272 -0.108616 0.0361134 0.0334939 0.0294879 0.045938 0.0806852 0.000159993 0.0543828 -0.0679573 -0.0634209 0.0146401 -0.059329 0.00723049 -0.0169295 0.0136979 -0.0755634 0.0168173 -0.0332289 0.0630004 -0.109993 -0.00811202 0.000831735 0.0683084 0.135484 -0.0970361 0.131764 -0.0501208 -0.00522803 0.0774525 0.0244597 -0.140325 0.037183 -0.135942 -0.141154 0.0681029 0.0229416 0.0580238 -0.104072 -0.0244112 -0.0895707 0.0376469 0.0579442 -0.0330719 -0.0721752 -0.0985145 0.158412 -0.0139538 -0.0934925 -0.148673 -0.115523 0.102611 0.100275 0.022047 -0.138147 0.040162 -0.112553 -0.0837735 0.0448222 0.0625557 0.0299452 0.023764 -0.0577889 -0.00534412 -0.0837368 0.110857 -0.00235907 0.103163 0.00567146 -0.00671272 0.064423 -0.0782778 0.0601676 0.113278 -0.0719094 0.131888 -0.121184 -0.08637 0.0299309 0.0645187 0.029432 -0.000941642 -0.0788417 0.037015 -0.0961457 -0.0422633 0.115068 -0.0787843 -0.110748 0.0584233 -0.103173 -0.0419419 0.058704 -0.0136689 -0.00382972 0.0898012 0.120987 0.0243126 0.114219 0.117398 0.0793553 -0.0222243 0.0675546 0.125912 -0.000106786 -0.012727 -0.147093 -0.109478 -0.0814582 0.0802903 -0.0120078 -0.093445 0.0785206 -0.0556662 -0.0680371 -0.0701192 0.106555 -0.0741055 -0.0874877 0.0244084 0.0485929 0.0759433 -0.0311586 -0.0575518 0.146725 -0.0496386 0.0233385 -0.121395 0.0615431 -0.0988331 -0.10567 0.0752372 -0.0705859 0.0508116 -0.124465 0.0696401 -0.058439 0.104308 0.0770948 0.0303464 0.00180162 0.0634939 0.0772261 0.0373477 0.0799819 0.0151732 -0.116299 0.0279911 0.0348051 0.0678804 0.114662 -0.0864931 -0.0743335 -0.0682309 -0.115909 0.0999516 -0.00976846 -0.0626204 -0.00780679 -0.0354897 -0.049857 0.102436 0.0545354 -0.0224828 -0.0288577 -0.0112757 0.0931506 -0.0668038 0.0203919 -0.0603206 0.0332965 -0.0593622 0.00405588 0.114797 0.0766766 0.0384159 0.106195 0.157394 0.043129 -0.116204 -0.106146 0.124631 -0.0584255 -0.0171671 -0.0996995 -0.0962108 -0.0592637 -0.0448259 0.061719 -0.0281487 0.0807719 -0.0813373 0.109753 0.153322 0.0944507 0.0814584 -0.091733 -0.0748924 -0.0785487 -0.0126952 -0.0379652 -0.0523987 0.0513412 0.0630444 -0.0386212 0.0362811 -0.0304349 0.0847382 0.119031 0.00836444 -0.0632301 -0.0708391 0.0383231 -0.0470756 0.0765162 0.106693 0.0316743 0.0456756 0.0472388 0.0342196 0.0670952 0.0655025 -0.0244857 -0.0968326 0.0612276 -0.0760917 0.0418683 0.0291539 -0.0875993 0.108383 -0.0306469 -0.0615198 -0.02698 -0.0791281 0.0229392 -0.0340995 0.0258916 0.0605636 0.117864 -0.00280231 -0.0618054 -0.0330658 0.00167754 -0.106118 -0.00923848 0.0734262 0.100998 -0.0454991 0.079473 -0.00321979 -0.0156891 -0.130139 0.104783 -0.0427646 0.00335063 -0.0049653 -0.0202222 -0.0171445 0.0115792 0.0957803 -0.096264 0.0728397 0.115593 0.07564 -0.107529 0.00286853 0.0410297 -0.124757 -0.111683 -0.0922325 -0.0370286 -0.0956292 -0.085824 -0.00835055 -0.0670627 0.0795912 0.0912399 -0.103428 0.106423 0.132997 -0.0870068 0.055976 0.0445111 0.0759726 0.101248 0.00125664 0.0717721 -0.1008 -0.07738 0.00994283 0.134181 -0.0275934 -0.0180334 -0.0398552 -0.00384928 0.0739413 0.0728711 -0.139144 0.0624578 -0.0501318 0.00495631 0.0665646 0.14262 -0.0635135 0.0913434 0.0287315 0.121102 0.0629163 -0.056576 0.106506 -0.0254721 -0.107244 0.0196534 -0.0367952 0.123129 0.0356926 -0.0227388 -0.0496104 -0.019991 0.109886 0.0103142 0.0449766 -0.0771118 -0.121312 -0.0656846 -0.0431541 0.0188508 0.0674853 0.106492 0.0466155 0.0134444 0.00668493 -0.0482104 0.0424275 0.102833 0.0655383 -0.069167 -0.101376 -0.125355 -0.0758861 -0.0194988 -0.0629271 0.00724569 -0.106947 0.0310325 0.123182 -0.101695 0.0527141 0.0740716 -0.0804148 0.0722193 -0.108255 -0.0321264 -0.00468892 -0.0142734 0.0727203 -0.070514 0.0958696 -0.0477161 0.0676694 0.114416 -0.0682355 -0.0794106 -0.0450942 0.0995757 -0.0257279 0.0416826 0.0275739 -0.126586 0.0146506 -0.0339459 0.059373 0.0457949 -0.0187174 -0.0622007 0.103452 -0.0667929 0.122086 0.122757 0.0776718 -0.091947 -0.00835236 0.0159371 0.00991989 -0.0368421 0.0508149 -0.0385206 -0.0719718 -0.0409458 0.0943691 -0.0424106 0.0200474 0.0103796 -0.0168079 -0.122909 0.0967479 -0.090595 -0.0936026 0.0289054 0.0479188 0.102232 0.109677 0.0199064 -0.0519385 -0.050903 -0.0194594 0.0852323 0.122477 -0.124401 0.00811308 -0.0534547 -0.000137103 0.105761 -0.073217 0.0441599 -0.000577133 0.0860688 0.00813912 0.0404704 -0.0527204 -0.0689154 0.0110487 -0.0501585 -0.00064923 0.0301222 -0.046642 -0.0540039 0.0867337 -0.0634404 -0.0649324 -0.0673917 0.0349749 -0.0280815 0.0195595 -0.0537694 -0.045023 -0.0568031 -0.12788 0.0636544 0.132875 0.0340855 0.0876712 -0.0855438 0.00769477 -0.0726709 -0.0878583 -0.0506848 0.107612 0.044506 0.040532 -0.0435792 0.0291158 -0.0265252 0.078693 -0.0808085 0.0232356 0.0402894 0.133362 -0.107162 -0.0546396 0.0579884 -0.120254 -0.116588 0.119218 0.108976 0.0161153 0.0523211 -0.0749099 -0.00812084 0.10781 0.0887871 0.00163959 -0.00958259 0.0594088 0.0763368 0.0876985 -0.0730406 -0.00277983 0.138448 -0.10467 0.101193 0.112615 0.028589 -0.0266923 0.110316 -0.118021 0.0610874 -0.0656716 0.0261252 0.109284 0.0334075 -0.0592488 0.115664 -0.0870518 -0.0622749 -0.0541417 0.00848095 0.110058 0.0577524 -0.0201182 -0.0635469 -0.106978 -0.0430027 0.155363 0.0768802 -0.0732848 0.0338405 -0.0453893 0.0301506 0.121016 -0.111601 0.0593279 0.141518 -0.00183821 -0.0506565 0.103675 0.060152 -0.028248 0.0862874 -0.0401709 0.0663588 0.0636833 0.0867597 0.0473753 0.108524 -0.0569255 -0.0380357 0.0505912 0.0120401 0.0369418 0.00982692 0.00278775 0.0127342 -0.0917481 -0.0274591 -0.100006 -0.0593287 0.0505219 0.0905148 -0.0943328 0.103126 0.0637189 -0.14626 -0.11444 -0.0537121 -0.0524555 -0.136768 0.0663616 -0.0882698 0.00155151 0.0540965 -0.0310777 -0.103953 0.00617429 -0.0582203 -0.0371845 -0.00335034 -0.103483 0.0109219 0.015599 -0.0430208 -0.0678568 -0.0605739 -0.0484993 -0.0244557 0.0235284 -0.025252 0.122631 -0.0422505 0.106359 -0.0338313 -0.0260874 -0.0111702 0.0391611 -0.0534557 -0.0696007 -0.169217 -0.0707908 0.0350112 -0.0240651 0.028651 -0.116326 0.0562987 -0.0726248 -0.0700961 0.102468 -0.0382204 0.0360733 0.107634 -0.0513639 0.04018 0.00527093 -0.0127155 0.127485 -0.169601 0.0444182 0.103197 -0.0237641 -0.0315231 -0.123321 0.0572772 0.0901377 0.0737144 -0.0140298 0.100126 0.0832645 0.067367 -0.0987679 0.0115994 0.0359866 0.0847912 -0.074078 -0.0961398 -0.0966203 -0.0176848 0.052329 0.0850831 0.0660314 -0.0755952 0.0744737 -0.0501139 -0.04945 -0.0408141 -0.0563988 -0.136309 0.0473432 0.073438 0.05806 -0.0255405 -0.100324 -0.0241551 0.0529523 0.0359391 -0.0548866 -0.0790081 0.0362248 -0.0654648 0.138324 0.0930189 0.0751675 -0.115604 -0.0431082 0.0542612 0.0636689 0.076488 0.0323714 -0.0322894 0.019091 -0.0132262 0.0806744 0.00196635 -0.112166 -0.00597992 0.149261 0.0453921 -0.0569689 0.118536 -0.10563 0.0711141 0.0607734 0.0371201 0.0670655 -0.0709002 -0.0218032 0.0788217 0.0831702 -0.101133 -0.0531298 -0.0976861 -0.0673906 0.0909944 0.0488105 -0.0238992 -0.00248285 -0.0865185 0.116478 0.0885726 -0.0981578 -0.101043 0.0499227 -0.138697 -0.079461 0.0369817 0.0721707 -0.0296013 0.0425722 -0.0226404 0.0875277 0.0778451 0.0642553 -0.0909298 -0.021145 -0.109832 0.0138936 -0.101029 -0.0762812 -0.00042671 -0.107505 0.0679446 0.100037 -0.143684 -0.131312 -0.03446 0.101707 0.0437405 -0.0721892 0.0614273 0.0310243 0.0709496 -0.0973875 0.0106492 0.116799 -0.0486483 0.046046 0.045701 0.143091 0.112726 0.115756 0.113295 -0.0703859 -0.0858388 -0.098772 0.00271095 0.107825 -0.024079 0.0605733 0.118763 0.0958921 -0.0799167 0.0863364 -0.0598199 0.0475386 0.167335 0.0731817 0.00654067 -0.0757091 -0.0399564 0.119759 0.103862 0.0526316 -0.0764392 0.116526 0.0891886 -0.0752631 0.0323874 -0.0334192 -0.0328914 0.0642831 0.0746672 -0.0763712 0.0862425 0.0340092 0.0882746 0.0130346 0.092031 -0.118652 0.0338925 -0.0257077 -0.0577617 0.040183 0.113202 -0.033116 0.094377 0.0618986 0.0338927 0.0785332 -0.0331577 -0.124219 0.0704872 0.000466922 0.0511611 0.0344622 -0.144454 0.0781218 -0.103033 0.012026 -0.117852 0.0568699 -0.102415 -0.0752155 -0.115608 0.00317477 -0.0288293 -0.112804 -0.125687 -0.12785 -0.120277 -0.106084 -0.0619167 0.0512544 -0.077838 -0.0942504 -0.0977963 -0.146114 -0.000231114 -0.0152263 0.0597441 0.0649746 -0.0332222 0.0536208 -0.105546 0.0372697 0.0351466 0.133076 -0.128497 0.011432 -0.149964 0.107483 0.00975857 -0.0124882 -0.100553 -0.000595896 0.0448204 -0.0682064 0.0993293 -0.0369421 0.0417889 -0.0349655 -0.0589375 0.100907 0.107356 0.0247179 -0.00340965 0.0486524 0.0487191 -0.0227876 0.103288 0.0884206 -0.0215307 -0.118781 0.0238081 -0.107749 0.0306232 0.105842 -0.004272 -0.0134874 -0.191315 -0.116489 -0.018651 0.0742865 0.0526979 -0.0762096 0.0252531 -0.0469268 -0.024888 -0.0246552 -0.0192224 -0.0500112 0.00828032 -0.0247991 -0.146832 -0.0389279 -0.0931747 0.0827711 0.074444 0.0756956 -0.147433 0.0850769 -0.0694359 0.0536271 -0.0999436 -0.0699392 0.0364231 -0.0695832 0.0602374 -0.0198805 -0.000298993 0.134494 -0.0412853 -0.138089 -0.0715361 0.0371157 0.0381729 -0.0254258 0.0347269 0.124232 0.106057 -0.131616 0.045905 0.0372816 0.0388526 0.0488728 0.0568466 -0.0555435 0.103268 -0.0775788 0.0670508 -0.0513997 0.0853868 0.0449353 -0.00242696 0.105201 -0.0315265 -0.0842341 -0.140627 -0.0763 0.126842 -0.0683695 0.109462 -0.131135 0.0228279 0.0689045 -0.0275671 -0.0974926 0.00975525 0.104171 0.0978678 0.0392334 -0.0347374 -0.0324086 -0.0683923 -0.113507 -0.00929054 0.0123264 -0.0998588 -0.0652478 -0.123837 -0.061657 0.0146514 0.00892773 -0.0224304 -0.155256 0.0414341 -0.0956307 -0.105584 -0.106187 -0.0694346 -0.135068 -0.0936752 0.0260079 -0.0363593 0.0875734 0.0375597 -0.103924 -0.0600652 -0.0583692 0.0754701 -0.0442461 -0.0221616 0.0638669 0.122773 0.0958386 -0.0353845 0.0230574 0.0469689 0.00436195 -0.0281248 -0.00303545 0.0220591 -0.0727744 0.00532725 0.119935 0.021917 0.0910309 0.0723888 -0.0158757 0.085749 -0.0152818 0.0499747 0.0145824 -0.0841362 -0.0177574 0.0681056 -0.128887 0.12775 -0.0866418 0.116662 -0.0189509 -0.0320032 0.0123396 0.0458797 -0.0276847 0.00017777 -0.054622 -0.0134895 0.118018 0.0128778 0.00612101 -0.0286165 0.0323061 0.0243302 -0.010348 0.107838 -0.0932035 0.131346 0.0752869 0.116476 0.0801663 0.0462969 0.0305625 -0.0244042 -0.046259 0.0949591 -0.0248835 -0.0190788 -0.0360199 0.0487867 -0.0470217 -0.107443 0.091395 -0.0457667 -0.0624173 0.102088 -0.0640204 0.0863875 0.161664 -0.0695743 -0.0986206 0.0660315 0.0138729 0.0910176 0.104228 0.0465138 -0.0178604 -0.0246349 -0.0247462 0.0854716 0.0953875 0.0303982 -0.112441 0.122312 0.00298488 -0.0245424 0.0131906 0.0611313 -0.124264 0.0329999 0.0660925 -0.0062233 0.0380664 0.0997567 0.136382 -0.0986677 0.012951 -0.122345 -0.11939 -0.144478 0.00669372 0.123453 0.0863965 -0.117088 -0.0164537 -0.0790724 -0.00965868 0.0533413 0.129367 0.0417629 0.0415763 -0.0483219 -0.0438812 0.0636382 -0.143865 0.105302 -0.105845 -0.00873137 -0.0114344 -0.068306 -0.0797106 -0.0716277 -0.0710003 0.123625 0.0965971 0.0107549 -0.0817674 0.0241064 -0.0184528 -0.0697359 -0.00508231 -0.0978998 -0.0833113 -0.0353315 0.111961 0.106588 0.0530162 -0.00940437 -0.0600658 0.0118447 0.125171 -0.0487067 0.0786173 -0.0884595 0.0687935 -0.114093 0.101902 0.0413344 -0.0621875 0.0537258 -0.0177933 -0.0781134 -0.00747841 0.0317214 0.0530581 -0.152745 -0.089947 -0.117973 0.0773646 0.0296387 -0.0986878 -0.111017 -0.0215924 0.118406 -0.0126575 -0.097579 0.0122249 -0.0121263 -0.0157933 -0.00736731 0.0217722 -0.0962488 -0.0281372 -0.0250188 -0.111634 0.0645884 -0.0473174 -0.0756935 -0.121127 0.0902012 -0.105823 -0.0615245 0.0794958 0.117046 0.0616832 -0.0394244 -0.0497324 -0.0809652 -0.114505 0.0740306 0.101348 0.116608 -0.018793 -0.0127134 0.0268371 0.0294005 0.135021 -0.106878 0.0636159 -0.0242046 -0.0237926 0.013223 -0.054755 -0.0324306 -0.0760718 -0.0730401 -0.0327564 0.0235317 -0.0514961 0.039227 0.0817233 -0.113331 0.0496934 0.0115027 0.0122722 0.0202291 -0.0234966 -0.00737073 0.081938 -0.0607738 0.0339486 -0.0265347 -0.104468 0.107399 0.085679 -0.0405567 -0.13159 0.0407774 -0.0617105 0.0683354 -0.113295 0.0693694 -0.0171775 -0.117456 0.000807838 0.00214944 0.0870282 0.0151346 0.0861522 0.0441236 0.028733 -0.0875978 0.00129608 -0.146108 -0.0579195 0.122875 0.0320326 0.10472 -0.10194 -0.0350659 0.0551401 -0.0599297 0.0618182 0.00315114 0.0847128 0.118606 -0.0686555 0.0496626 -0.0937941 -0.00264707 0.0558229 0.0693371 0.0224248 -0.115152 -0.0769865 0.105218 0.071447 0.0846666 0.130102 0.122883 0.117521 -0.0788856 -0.0206257 0.00679821 0.0918554 -0.0780318 0.00094566 -0.0803154 -0.0111607 0.110251 -0.0158317 0.0371554 -0.0482772 0.139787 -0.0196022 0.00170915 0.00610891 -0.0617323 -0.0338068 -0.0551141 -0.0184795 -0.0268264 -0.0348758 -0.00595822 -0.126005 -0.0721317 -0.0776816 0.12142 -0.0800109 0.102896 -0.0230223 -0.108897 -0.122333 0.024451 -0.0757719 -0.0506947 0.104622 0.0482444 0.0550232 0.0460609 0.0317353 0.062751 0.0523554 0.0632173 -0.0116399 -0.0202805 -0.0724469 -0.114331 0.0795082 -0.12887 -0.0107084 0.0926177 0.107231 -0.0147913 0.0757965 0.051155 -0.025345 0.133812 0.0344454 -0.0321468 -0.147414 -0.00299031 0.109214 -0.116968 0.00707828 0.0322502 -0.044006 -0.00580685 0.0885319 -0.108363 -0.0904718 0.0810799 0.0815256 0.0235079 -0.009468 0.136566 0.125163 -0.0307102 -0.0599683 0.118679 0.127279 0.0388462 -0.0584582 0.11658 -0.0719664 -0.0216388 -0.0865619 -0.0408307 0.0814814 -0.034403 0.0938125 -0.052382 0.131031 -0.0357357 0.0129388 0.0979241 0.104237 0.119865 -0.121502 0.073855 -0.10756 -0.107238 0.0239183 0.00195067 -0.0229854 -0.0721879 -0.0729431 -0.0391147 -0.02704 0.0394171 0.0579432 -0.0833468 0.116922 0.0880933 0.0244685 -0.0327579 -0.0654813 -0.081316 -0.1115 0.0544121 0.00379299 -0.0192382 -0.0672121 0.0360958 0.0256853 0.0558646 -0.0840512 0.0341826 -0.00687036 0.0473877 -0.0515414 0.0633461 0.0626023 -0.0402057 -0.051746 0.112049 -0.0743603 0.116959 0.0281799 0.0648764 -0.0638866 0.0527068 0.000355317 -0.0507304 -0.0155888 -0.13876 -0.0444772 -0.0142072 -0.0771564 -0.0126828 -0.0308974 -0.0567538 -0.019254 0.112926 -0.0420075 0.0462583 -0.0472314 0.0860357 -0.00247951 -0.0605491 -0.0900139 0.0619428 -0.0544823 0.13843 0.0013552 0.0572197 0.0955634 0.029995 0.0491036 0.136698 0.0908399 0.0873507 0.0457608 -0.0924671 -0.0835222 0.0295521 -0.035545 0.00892904 -0.0126794 0.0769098 -0.0499573 -0.124748 0.0505343 -0.0488952 0.149367 0.156057 -0.0387712 0.0679559 0.0514723 0.0213025 0.140065 -0.0697684 0.092553 0.0856006 -0.0540896 0.0248231 0.00514642 -0.0728644 -0.139116 0.0894651 0.0600543 0.0581083 0.0204185 0.102317 -0.0502179 -0.0720675 -0.0867262 -0.0599626 -0.00439313 -0.0640669 0.0558023 0.116023 0.139627 0.00894793 -0.137211 -0.0455563 -0.0662459 -0.0862811 0.0993479 0.0479382 -0.0967674 0.113194 0.0046236 -0.0124062 -0.0349589 0.109361 0.0749136 0.105926 0.0582063 0.0610752 0.0899322 -0.0368735 -0.0300428 0.0419782 -0.0225455 -0.110032 -0.0279779 0.107723 -0.0459785 -0.0953232 -0.069385 -0.0175476 0.0732885 -0.0587233 -0.112673 0.0707101 0.111134 -0.0508964 0.0286992 0.00518797 -0.0105025 0.0390176 -0.0504782 -0.0593391 -0.109004 -0.0399668 -0.109843 -0.0585914 0.0668793 0.0303621 0.143017 0.0605146 -0.0936254 -0.106872 -0.0604184 0.0285877 0.0749143 0.076445 0.0945943 -0.0792886 0.0355925 0.00680632 0.014827 -0.0574432 -0.0822372 -0.114915 0.00470538 0.0596526 0.0565454 0.0491984 -0.00473405 -0.0484367 0.0335925 0.0216326 -0.0383262 -0.142396 0.00740717 0.0501858 0.0896419 -0.0606879 0.0315863 -0.142571 0.0269697 0.0438135 0.00403273 0.0338571 0.0861274 0.0749862 -0.0257828 0.030616 0.0306189 0.103013 -0.0254382 0.0246083 -0.12861 -0.0166974 0.036532 0.0435861 0.129317 -0.0369869 0.0502557 0.0780339 0.00464487 0.103407 -0.0561507 0.0890092 -0.0708416 -0.118234 0.0735439 0.114439 0.0246915 -0.0507709 -0.100554 0.0181353 -0.145705 0.031881 -0.074871 0.108438 -0.0321742 0.00838535 -0.0777491 0.0892561 0.0949994 0.0152525 0.0577238 -0.0694603 -0.0375823 0.105961 0.0929289 -0.093759 -0.100307 -0.0549282 -0.0821595 -0.0763704 -0.0145755 0.0655308 -0.0586627 -0.0929475 -0.103466 0.0814498 0.0795449 -0.000273929 0.0684878 -0.132387 -0.0554704 0.0640532 0.0494359 0.107462 -0.0741725 0.087523 0.103799 -0.059781 0.0613997 -0.056354 0.0520596 -0.0277274 0.0322918 0.0414384 -0.0575601 0.0365972 -0.135162 0.0911347 -0.0210918 0.0488193 0.0228521 0.0524378 -0.072009 0.000806283 -0.105301 -0.0201501 0.037788 -0.0657411 -0.0467427 0.0797859 -0.0236482 -0.0194905 -0.0837865 0.000346601 -0.0147134 0.0972641 -0.0109845 0.106022 -0.109358 0.0263314 0.0978617 -0.0624675 0.015271 -0.0013192 0.0758372 0.0930134 0.0630353 -0.0897286 -0.0387302 -0.0669343 -0.0515224 -0.0600496 -0.0367778 -0.0881819 -0.0899459 -0.0282681 0.0447048 -0.032674 0.0947347 -0.0936049 0.00348351 -0.129944 0.041614 -0.120848 -0.0788166 -0.0350335 -0.0490021 -0.053351 -0.0957624 0.0271737 0.0298367 -0.00789856 -0.0961915 -0.0408114 -0.0232341 -0.116409 0.0912534 0.0123273 -0.0419387 -0.00315033 -0.00205232 0.0922926 0.0259984 -0.0767401 -0.0638442 -0.109346 0.0925207 -0.0998633 -0.0157994 0.0714729 0.0559266 -0.0538442 -0.00130429 0.0431976 -0.0477557 -0.0345401 -0.11444 -0.00907169 -0.0587169 0.0126471 -0.0554297 0.0527567 0.0836856 0.0935768 -0.0371519 -0.118035 -0.122684 -0.107716 0.0458716 -0.007916 -0.0643435 0.089786 -0.0142802 -0.125008 0.101518 0.0285077 -0.123475 0.0684132 -0.070753 -0.0430127 -0.0516664 0.0136155 -0.0888329 -0.113754 -0.00552094 0.115828 0.0208585 0.00557715 0.114808 0.0230385 0.0260896 -0.0235446 -0.0876666 0.0690773 -0.0555673 -0.11968 0.00613824 -0.100337 0.0441759 -0.0460424 0.00972001 0.0987743 0.000389814 -0.105667 -0.0242291 -0.0890713 -0.106021 -0.0535719 0.0132478 0.00226748 0.0841025 0.0201884 -0.06165 0.00373457 -0.0650163 -0.00373032 0.108561 0.0763607 -0.0911564 0.0240002 -0.0855224 0.0723955 -0.0259573 0.122596 -0.0665468 0.0520499 -0.070208 0.0303871 0.095959 0.0598155 -0.0624871 -0.0122905 0.106091 -0.0760392 0.0226463 0.0564712 0.103032 -0.134816 0.0013055 0.039668 -0.0371212 0.0119289 -0.129478 -0.115213 0.0409451 -0.0793719 -0.0478071 0.0532369 -0.0172125 0.066946 -0.0281132 -0.0140239 -0.12788 0.0537604 -0.0989789 0.085657 -0.0824967 -0.0393048 0.0302938 -0.06849 -0.109173 0.0362948 -0.123073 0.0581482 -0.11126 -0.132723 -0.0679665 -0.125964 0.105597 -0.0105291 0.0548843 -0.0320149 -0.111532 -0.0563857 0.0407173 -0.119016 -0.0920331 0.0627319 0.0901304 -0.0298515 0.0242935 -0.132461 0.0446712 0.0392833 -0.0988348 -0.121998 0.102316 0.00132204 0.032387 0.118168 -0.0504003 0.0145413 -0.00249625 -0.0680359 0.0926912 -0.020441 0.00203488 0.0780166 -0.000310674 0.0812754 -0.00186629 -0.0394781 0.150083 -0.0862034 0.0521859 0.014817 -0.0584555 -0.0141605 -0.0860733 0.06209 0.0821194 0.0371681 0.108475 0.0275742 0.10168 0.0767578 0.106316 -0.0530933 -0.0481318 0.0514555 0.0711486 0.0320738 -0.0903292 -0.00917429 0.0846932 0.149558 -0.107589 -0.0358729 -0.0738419 -0.0229948 -0.0367137 0.0460798 0.0628506 -0.0567243 -0.00138836 -0.102996 0.0816477 -0.0747856 0.0565046 0.0742341 0.0218746 0.0830124 0.049898 -0.0715687 0.115689 0.0338615 0.112028 0.137278 -0.0622939 -0.0573943 0.104085 0.102436 0.12846 0.0893229 -0.0969784 -0.111627 -0.0421981 -0.0572118 -0.0478973 -0.0712258 0.111152 0.00965392 -0.103232 -0.001254 0.0359753 0.0786977 0.0291684 -0.017121 0.0904716 0.0446063 0.0979803 0.0703967 -0.0745576 0.0321018 -0.089166 -0.0685302 -0.0295674 0.123863 0.0547143 -0.0907968 -0.118813 0.0763462 0.0129407 0.00407767 -0.0212894 0.0191249 -0.0243335 -0.111184 -0.0942752 -0.0685864 0.104809 -0.00658325 -0.123407 -0.0661129 -0.100243 0.0219626 -0.0608172 0.114121 -0.0880548 0.0901256 -0.0662627 0.0899048 0.0729687 -0.0493008 0.0638345 -0.0124568 0.0551175 0.0761828 0.113516 -0.0101543 -0.0671817 0.0584049 -0.0308107 -0.10809 0.062649 -0.0464076 0.0259848 -0.0498993 0.0857658 -0.0136343 -0.0858357 0.0133186 -0.112179 -0.059303 -0.128782 -0.00832608 0.048925 0.124816 0.0520471 -0.0280917 -0.0730329 -0.0541361 -0.121165 0.0115348 -0.11564 0.0433975 0.0920044 0.0933705 -0.0439086 -0.118631 -0.0545583 -0.0511876 0.111661 0.0994876 -0.0669053 0.0851096 0.000393797 -0.0436735 -0.0110213 -0.0124223 0.037655 0.0832463 -0.0697045 -0.0581096 -0.126802 -0.0872736 0.0374742 -0.0258795 -0.0714734 -0.105627 -0.107218 -0.0382333 -0.0594167 -0.0903211 0.120235 0.0636341 0.0824451 -0.0245481 0.0557584 0.0206858 -0.03554 0.0317108 0.0191103 0.0454357 0.0601273 0.0636769 0.0692059 0.0620634 -0.0912576 -0.0179028 -0.0631633 0.093942 -0.0818838 0.0631878 -0.0142604 -0.0875867 0.02016 -0.0342057 -0.0212903 0.114025 -0.101907 -0.0783837 0.0341501 -0.0637399 0.0607731 -0.0925299 -0.0564808 -0.118526 -0.110718 0.112962 -0.0328118 -0.162989 -0.0475557 0.038851 0.0674099 -0.0715866 -0.105319 -0.0603647 0.00576434 -0.0921044 -0.0301844 -0.0161422 -0.106928 -0.122723 0.0054712 0.0928582 -0.0218589 0.108615 -0.0960134 -0.0234417 -0.0100445 -0.00831247 0.111507 -0.0301343 0.0233115 -0.0508929 0.0467111 0.0849264 -0.0930076 -0.0306377 0.00745614 0.112656 -0.0316099 -0.0766018 -0.135441 -0.0117551 -0.0314081 -0.117314 -0.0971964 0.00116907 0.103261 0.0897617 0.0272258 0.0386006 0.123132 0.0100076 -0.0978701 -0.0990445 -0.0566246 0.0954319 0.117812 0.0866184 -0.0303806 0.00351049 -0.0912004 -0.0809881 0.0806205 0.0416803 -0.132192 0.00588069 0.0612404 0.0940402 -0.0620874 -0.00616762 -0.109936 0.0101797 -0.119796 -0.0145121 -0.100387 0.0420422 0.0664638 -0.0802462 -0.0839374 -0.0649672 0.0371136 0.0784752 0.0938252 0.114949 -0.0333535 0.0233378 -0.119377 0.0749843 -0.106852 -0.134169 -0.127748 -0.125803 -0.0405781 -0.100257 -0.134669 0.0907068 -0.0251141 -0.0575268 0.10239 0.0512414 -0.0441581 -0.0640498 -0.028726 -0.0448791 -0.061816 0.110462 -0.00989492 0.020621 -0.074864 -0.121224 0.0598021 0.0477119 -0.0428075 -0.0749742 -0.0217279 -0.0785871 0.0869893 -0.0089722 -0.0233036 0.0516894 0.0200681 -0.101195 0.0796384 -0.0964694 -0.101161 -0.0354981 -0.0430642 -0.0149014 -0.0902541 -0.0809841 -0.0331652 -0.113099 0.0756287 0.0409283 -0.0388097 -0.0135835 -0.0273243 0.0155671 -0.128173 0.0847174 -0.0432909 -0.0633396 -0.0507378 -0.0307354 0.00448099 -0.0125846 0.0268204 -0.126531 -0.0803412 -0.0552522 -0.117282 -0.12029 0.0708096 0.0824601 -0.135518 0.106448 0.108469 -0.00630334 0.0707325 0.0734503 -0.108826 0.115266 -0.0265462 0.0171276 -0.0621214 -0.0477085 0.0419447 0.0783383 0.104141 0.0967158 -0.0167033 0.0505564 -0.0939623 0.0716147 0.0319666 0.084742 0.0695245 -0.0556129 0.113143 0.0240834 -0.0352415 -0.0797588 -0.0875195 0.0962742 -0.117095 0.0886809 -0.022707 0.00813257 0.108049 0.0628518 0.000266099 0.0823708 0.0132909 0.0164296 -0.0182793 -0.00271369 -0.0222291 0.0578462 -0.10961 0.0816127 0.083939 0.0914286 -0.00158882 0.0383159 -0.0044711 -0.0514539 -0.0201106 -0.128628 -0.112869 -0.11522 -0.105391 -0.0372751 -0.0435467 0.0339376 -0.0391182 -0.0306935 0.0790826 -0.0639709 0.0360157 0.11462 0.0926532 -0.00195781 0.0920582 -0.0241748 -0.00507592 -0.100538 0.0341055 0.0629309 -0.0176751 -0.0822468 -0.13144 0.0759947 0.102477 -0.136856 -0.0259095 -0.0817203 -0.0327997 -0.125798 -0.11962 -0.0196686 -0.0708047 -0.0474303 -0.0504649 0.014653 -0.00548148 0.10495 0.0208558 -0.0796138 -0.132529 0.080763 -0.094784 0.0352583 0.0824077 -0.0417472 -0.126155 0.0522528 0.0434252 -0.12601 0.000150099 -0.119258 0.0220244 -0.0810805 0.0974183 0.0318783 -0.120186 -0.0984052 -0.108867 -0.0206557 -0.0354135 -0.0294304 -0.0460506 -0.0853544 0.047507 0.101219 -0.124385 0.0213915 0.0292828 0.111587 0.0923604 0.107457 -0.0787758 0.103635 0.0375447 -0.0944141 -0.110135 -0.0782909 0.0454582 0.0929417 -0.102884 0.0200186 -0.0311983 -0.102159 -0.00540164 0.0154019 0.0961279 -0.0674562 0.111215 -0.137895 0.0892771 0.0667519 0.0777894 -0.0777135 0.0160747 -0.105829 0.103421 -0.0995025 0.0719417 -0.0916002 -0.100962 -0.114529 -0.0202439 -0.019686 -0.113205 0.000555415 -0.0468024 -0.00596109 -0.0320805 -0.014287 0.113056 0.0880103 0.152693 0.13604 0.148196 0.0209356 0.137163 0.0782119 0.108669 -0.06143 0.0601226 0.0043447 -0.12426 0.0450865 -0.0508591 0.0531288 -0.112694 -0.0753421 -0.0312602 0.074216 -0.0317893 -0.0127334 0.000194875 -0.0581728 -0.0705915 0.0451612 -0.161426 -0.0825225 0.0774268 0.10343 -0.0982035 0.0251675 0.0315147 -0.00644366 -0.0261494 -0.000304393 0.0535311 -0.125732 0.0814375 -0.0564586 -0.0279991 0.0264648 0.00312957 -0.0309795 -0.0616103 -0.0194828 0.0357071 0.112588 -0.0702594 -0.165795 -0.0897984 0.0249618 0.103498 -0.0425216 0.0421421 0.0954644 0.0468229 0.0874712 0.0789298 0.0480827 0.0130801 0.00554497 0.0139997 -0.0771374 0.0884588 0.0113933 0.0159739 -0.112459 0.00606341 -0.0369854 0.129224 0.0541208 0.128646 -0.0441062 0.134889 -0.0969993 0.0894811 -0.0729045 -0.039915 -0.0459337 -0.0146726 0.0894914 -0.0907066 -0.00894447 -0.109287 0.0853218 -0.103289 -0.0692042 0.0681045 -0.0306547 0.0665416 0.111325 0.080667 0.0741809 0.0658559 -0.00844314 0.0409806 0.0127483 -0.111341 -0.0555707 0.0759682 -0.121194 -0.0883978 0.0891332 -0.0854779 -0.102991 -0.101352 -0.0819781 0.0892115 -0.0347234 0.0485696 -0.0971635 0.0136441 0.0152794 0.0982627 -0.141802 -0.140015 0.147061 -0.115819 -0.0213256 -0.126362 -0.118355 -0.0326725 -0.151197 0.102886 0.092351 0.0300859 -0.0525211 0.0639103 0.0681043 0.0106097 -0.00637974 -0.122382 0.0201743 -0.0329299 0.0587952 -0.0760079 0.0531077 -0.131956 0.058159 -0.00965139 0.0850104 -0.107306 0.0775167 0.0694399 -0.0433597 -0.00432599 0.0118267 -0.0665905 0.0441075 0.0259261 0.0803353 -0.10436 -0.0153989 0.0677568 -0.135816 -0.0393828 -0.120614 -0.0450227 -0.0591159 0.049351 -0.0808691 -0.118206 -0.0190949 -0.0685577 -0.0610983 -0.0568679 0.03066 -0.0909307 -0.0738025 0.103498 0.0323482 0.101728 0.0874265 -0.0316782 -0.0341792 0.033922 -0.185697 0.0282994 -0.0994581 -0.0784981 -0.0864984 -0.0121068 0.105525 0.016178 -0.131763 -0.00989611 -0.119511 0.0318355 -0.0637592 -0.118 -0.079507 -0.0774177 0.128281 -0.108001 -0.0651962 -0.157287 0.00921902 -0.155711 -0.0232367 0.0623936 -0.140728 0.0705488 -0.081879 -0.0239819 0.0413809 0.042758 0.122884 0.118611 0.104793 -0.154698 -0.0364078 -0.038927 -0.142419 0.12225 0.0947559 -0.0684251 0.00586548 -0.0638692 -0.105761 -0.0806992 0.0253224 -0.0928202 0.0460193 0.0359026 0.0213416 -0.0146293 0.0437052 0.0510077 -0.0741115 0.00774057 0.0686751 -0.0805197 -0.076732 -0.124967 -0.0709924 0.0392006 0.0525346 0.000407873 0.0308289 -0.124064 0.00765696 0.0509396 0.0785324 0.0308556 0.0641574 0.131641 -0.0036781 -0.0706006 -0.0423974 0.0166486 0.033305 0.115835 -0.0144836 -0.0830471 0.0975805 -0.121208 -0.104623 -0.101455 -0.0131039 -0.0382889 0.119473 0.114585 0.072823 0.000576116 -0.0438061 -0.0384186 0.0838705 -0.0985061 0.0658948 -0.0122158 0.033789 -0.0223943 0.111165 -0.115702 0.10515 -0.0431489 -0.00940086 0.0412529 -0.0689209 -0.0862401 0.105997 -0.110772 0.0649624 -0.0490674 -0.11005 0.0466801 -0.00767393 0.103448 -0.112748 -0.120168 -0.106556 -0.0817331 -0.098952 -0.0355737 0.0484837 -0.0194627 0.0628759 -0.105368 0.0412246 -0.0474418 0.0302474 -0.0554615 0.093059 -0.0313816 -0.114904 -0.104185 -0.0576865 -0.0568229 0.00248768 -0.112466 0.0779641 0.116166 0.0813839 0.0298035 -0.0696723 -0.0706001 0.071699 0.0360418 -0.10451 0.0422953 -0.0183249 0.101026 -0.109749 0.0500924 0.0675292 -0.0496048 -0.0278125 -0.0314136 -0.0275491 0.0461612 0.0300415 -0.0621045 -0.00871893 0.042318 -0.113396 -0.0110194 -0.113468 0.103943 -0.0388855 0.116854 0.045636 0.088268 0.00218793 0.101181 -0.0533263 -0.0344471 0.0580791 -0.0907609 -0.0798526 0.106039 -0.074062 0.0212874 0.0455645 -0.0275312 0.0701597 0.0809338 0.0938432 -0.118693 -0.0166571 -0.110903 0.00514785 0.0145406 0.0176011 0.110021 -0.0185164 0.100111 -0.0416717 0.00378418 -0.102249 0.0949648 -0.0810876 -0.0809148 0.0752104 0.075753 0.0454256 0.0162987 0.0173176 -0.0266703 -0.0307432 -0.0536154 0.0235806 0.0529457 -0.0727662 -0.0985117 -0.126934 -0.083833 0.0484048 0.021433 -0.104567 0.0241348 -0.0159134 0.115983 0.0686758 0.057045 -0.131026 -0.106594 -0.117736 0.114975 0.0282591 0.0789235 0.0462099 0.0990613 0.0447178 -0.044712 0.0435087 -0.0478524 -0.122629 0.092087 -0.103479 0.119301 -0.0963906 -0.112531 -0.0728974 0.117002 -0.0436204 -0.0156982 -0.00538231 -0.0952215 0.0387675 -0.0176471 -0.0576123 0.0443995 0.0514102 0.0256716 0.0721853 0.114031 -0.0569791 0.0865162 0.0241123 0.100091 -0.0825303 0.0629842 0.121825 -0.0491934 -0.0913806 0.0171589 0.0136195 -0.0954755 -0.0705327 -0.120717 -0.0512767 0.0832111 -0.013386 -0.00264433 0.0894699 -0.114332 0.11578 -0.0440195 0.0191109 -0.040783 -0.0508657 -0.0497997 0.0329104 -0.00256001 -0.0502484 0.024705 0.101337 0.0845952 -0.0385463 0.0541699 0.110107 -0.122447 -0.0959255 0.0378334 -0.0813592 0.023503 0.0324459 0.0862061 -0.107771 -0.1007 -0.129532 0.0558184 0.00246673 -0.0794634 0.0448214 0.100576 -0.0946267 -0.00182659 0.00592376 -0.111066 -0.0794044 -0.0712798 0.12043 -0.0201254 -0.0670268 -0.0323802 -0.00901119 -0.125287 -0.0631957 -0.048112 0.10945 -0.0839295 -0.126184 -0.0838035 0.0401179 -0.131546 -0.0649595 0.0468741 -0.092798 -0.0497033 0.00788755 -0.0279798 -0.060609 0.00964127 -0.0670425 0.102071 0.0714253 -0.0210427 -0.0202015 0.0154317 0.0622663 -0.103576 0.0390085 -0.0838853 0.00843552 -0.102006 -0.00657697 0.0198774 0.163595 -0.0429423 0.102618 0.121509 0.100898 0.0279253 -0.0808762 -0.101224 -0.0437893 0.00819987 0.143909 -0.0852044 -0.0335849 0.0200918 -0.0136309 -0.102449 -0.0837048 -0.00560103 0.0198393 -0.0758744 0.132215 0.112347 0.0997539 -0.0605245 -0.00338189 0.0905391 0.12784 -0.0193933 -0.0814476 -0.0873372 0.0132488 -0.0900782 0.0703589 0.100534 -0.0553088 -0.0582297 -0.0703155 0.0889103 0.0479628 -0.0784526 -0.10131 0.0689767 0.065929 0.0741936 -0.0820795 -0.0540834 -0.0838022 0.00884115 0.0719352 -0.0361885 0.0960573 -0.0605331 -0.0249861 -0.0200607 -0.0324276 -0.0197586 0.103573 0.0391385 -0.110172 0.0280179 0.0456439 -0.0432567 -0.0647986 -0.091 0.0723209 -0.0774312 0.0898375 -0.0161643 -0.031596 0.13877 -0.137625 0.100244 -0.000565441 -0.114959 -0.000844335 -0.0482738 -0.0204065 0.0151057 -0.104651 0.0810779 0.023876 0.10084 -0.114847 0.0204196 -0.0174005 0.0623487 -0.1181 0.100351 0.0901764 -0.105244 0.0696647 -0.125356 0.101823 -0.0708529 0.0441723 0.027482 0.0517093 0.0324932 0.00826376 -0.0632333 0.0848771 0.0246956 0.0491148 0.108753 0.108896 0.0668644 0.0702259 -0.138128 0.0479904 -0.131986 -0.0988805 -0.0146688 -0.0488169 0.0486615 -0.139272 0.0603083 0.0782438 0.0937266 -0.130021 -0.0747589 -0.0239432 0.074429 -0.0777339 -0.0524464 0.103224 0.131128 0.0780849 -0.0161737 -0.0824616 0.0140004 -0.0116654 -0.107251 0.0461052 -0.116824 0.0402235 0.0244651 -0.0401309 0.0771997 -0.0340231 0.0972173 -0.119278 -0.107954 -0.0624314 -0.0292697 -0.0153455 0.0510252 -0.0239563 0.127003 0.0799457 0.0730946 -0.0131019 -0.102065 -0.0658014 0.0939047 -0.0457279 0.0809024 0.0846708 -0.08293 -0.0605319 -0.0652969 -0.0574012 -0.0440976 -0.0580131 0.0569502 -0.0554903 0.0800279 -0.110463 0.0229733 0.0185486 -0.0752506 0.0769819 -0.137707 0.108849 -0.01793 0.0542579 0.112717 0.118188 -0.110004 -0.103018 -0.060746 0.0295139 -0.00989796 0.0775251 0.0153494 0.141073 0.0991352 -0.0680401 0.0839574 -0.0774941 0.116071 0.0498488 0.0668149 -0.00401838 0.0191743 0.0154687 -0.108411 -0.0448853 0.0666495 0.117677 0.0946995 -0.0817572 0.113385 -0.0750425 -0.0337195 0.0148123 -0.0180973 0.120996 0.0513134 -0.0244036 -0.104461 0.0815374 -0.0113239 0.0410436 0.0623985 -0.0624287 0.0361997 -0.0368876 0.0565717 -0.0502192 0.100024 -0.0852843 -0.00988775 -0.0761696 0.022047 0.0106194 0.118308 0.118192 -0.100071 0.0242792 -0.0852306 -0.103998 0.0999596 -0.0263841 -6.42682e-05 0.0526903 -0.0233037 -0.0673908 -0.0923105 -0.0686458 -0.0294483 0.151109 0.0924998 0.022696 0.0375378 0.0165859 -0.120208 -0.0895871 -0.0117969 -0.12156 -0.088932 -0.0152965 -0.0470944 -0.0458185 0.0477485 -0.0942024 0.00762442 0.0617576 0.0112287 0.0862981 -0.0186696 -0.0407231 0.0968263 0.0195832 -0.00120761 0.110645 -0.0989577 -0.121416 0.0466453 0.0222013 0.0727372 0.0705504 0.0337465 -0.159531 0.060635 -0.0342442 -0.0844212 -0.0511251 0.0651712 -0.0473906 0.119252 -0.00662374 0.0809834 -0.0367399 -0.0450133 -0.0154111 0.0278833 -0.068697 0.0363085 0.0656743 -0.0731589 -0.126349 0.112627 0.0769081 -0.096343 -0.0898445 0.108715 0.0361522 0.0788238 0.0950322 -0.0237813 0.0117145 -0.105615 -0.00684856 -0.0321371 0.0444946 0.138271 -0.0105443 -0.116077 -0.000142897 0.075087 0.105676 0.0126025 0.0519534 -0.0277856 -0.016984 0.115322 0.10065 -0.0920652 -0.098673 0.049991 -0.0197163 -0.0971444 0.0621992 -0.0210152 0.0674741 -0.036444 -0.10589 -0.110264 0.0694557 0.0839872 0.0820876 0.124578 -0.000633369 -0.016319 -0.0967159 -0.110642 0.0521233 0.0737496 0.0953152 -0.00816927 0.0395153 0.0383214 0.0834252 0.123908 -0.104895 -0.0822607 0.0395264 0.0134544 -0.0850379 0.0913069 0.105339 -0.0473217 -0.091923 -0.0742168 -0.00764894 0.0992356 0.1125 0.036122 -0.0208693 -0.0373616 0.0490368 -0.0216376 0.102804 0.114189 0.00108952 -0.0945635 0.0895838 0.0677882 -0.0160393 -0.00665938 0.0462344 -0.0990412 0.090759 -0.105673 0.0503424 0.0780288 0.125778 0.0122981 0.0322116 -0.0286986 0.0960713 0.0718008 -0.0180501 0.0248173 -0.0276819 0.0686024 -0.0506726 0.106214 0.0830412 -0.0725291 -0.0873551 0.0855262 -0.0872827 -0.146931 0.0708683 -0.0286786 0.103845 0.0800823 0.0031235 0.0795652 -0.0430503 -0.0327029 -0.135709 0.0913417 0.0635569 0.0306466 0.0993553 0.0294063 0.066341 -0.0968281 0.0674038 -0.101642 0.00937195 0.0541261 -0.144082 -0.0719146 0.019875 -0.0254564 -0.0470019 -0.0826177 0.0406236 -0.0896812 0.124715 0.0402558 0.00443007 -0.12442 -0.00775349 0.104501 0.0198677 0.00951196 -0.0733964 0.0167915 -0.0270387 0.112717 0.0416756 -0.103003 0.0915898 0.0248505 0.0437687 0.0125919 -0.0915097 0.129394 0.108723 0.0757347 0.0201599 -0.0567886 -0.0375788 -0.115183 0.104967 0.107807 -0.103164 -0.0547213 0.0522445 -0.0480175 -0.0754834 0.0351942 -0.0258239 0.0596272 -0.0712289 0.0925612 -0.0141942 0.0935672 0.0520759 -0.107968 0.0282744 0.0891758 0.0677576 -0.0822911 -0.106471 0.0151436 -0.023332 -0.00987433 0.0776767 -0.117223 -0.147515 -0.0149673 0.105585 0.136524 0.00831193 0.00433427 0.0999751 -0.0443243 -0.1082 -0.122746 0.0784845 -0.0242392 -0.0310316 0.0784943 0.0738776 0.0581608 -0.118182 0.0406488 -0.0489456 -0.0640307 -0.146224 -0.0976369 -0.0662744 -0.0412016 0.062991 0.173355 -0.105684 -0.0384372 -0.0891115 -0.00706503 0.00102829 0.0239181 -0.0352903 -0.0646353 0.0638855 -0.0207262 -0.0665832 0.158275 -0.0925524 -0.0986489 0.0390567 0.093494 -0.0537734 -0.089023 0.1052 0.0979935 -0.108562 0.102149 0.0728603 -0.0750422 -0.0570883 0.0129124 -0.113648 0.106762 0.0578444 0.103178 0.0470698 -0.137702 -0.107392 0.0881542 0.0490468 -0.0857802 -0.0383164 -0.0750178 0.0109309 0.0810956 0.0359025 0.0775544 -0.0236136 -0.0156257 -0.0743463 -0.0093354 0.0281663 -0.0605553 -0.0839487 0.143007 0.0260993 -0.0877896 0.10169 -0.0480595 0.0426763 0.0323577 -0.0773771 0.0458513 -0.0167261 0.111149 0.0339599 -0.0477499 -0.0503213 -0.0327336 -0.0282546 -0.0859058 0.0949159 0.0842697 -0.141376 0.0940773 -0.043231 -0.0678448 -0.0252487 -0.102217 0.1594 -0.00765652 0.0376921 0.145623 0.116074 0.0521851 0.0457181 0.100535 0.078966 -0.0528745 0.0240444 0.0767018 -0.0369095 -0.0465272 0.0541035 -0.107373 0.0983745 0.0405515 -0.0827962 0.00889679 -0.103052 0.0999341 0.0974593 -0.0823778 0.0418397 -0.102699 -0.0686819 -0.0323117 -0.0340481 0.091627 0.021082 -0.0882955 -0.0101048 0.0771888 0.137056 -0.0259776 -0.0933366 0.177156 0.106639 0.00356263 -0.0166804 -0.0706216 -0.0828018 -0.0623698 -0.0355537 0.0206694 0.11639 0.00604002 0.0556662 0.0665245 0.00536269 -0.125697 0.0421624 -0.0610829 0.0320231 -0.00481873 -0.103164 0.0739515 0.0340526 -0.00186912 0.125261 0.0156809 -0.0374632 0.0563697 0.053517 0.0208772 -0.0904232 -0.0513655 0.0594718 0.0907444 0.115905 -0.060078 -0.114653 0.0126889 0.0662568 0.110806 0.0788444 -0.153069 0.0998786 0.0462932 -0.115215 -0.00522024 0.0438267 0.0717517 0.0760519 0.0508119 -0.0347851 -0.00551962 -0.0615328 0.0372377 0.121395 0.115372 -0.0911015 0.0319531 0.0363403 0.0117566 -0.0259157 -0.042976 0.0127682 -0.0417301 -0.0469846 -0.00257627 0.0857631 -0.0942791 0.0533149 0.0986066 -0.076103 0.00520551 0.0832302 0.0244957 -0.0400526 -0.00422497 0.0900483 0.00262877 -0.0982088 -0.056205 -0.0730808 -0.0570482 -0.0973959 -0.0195508 -0.100965 0.0918649 -0.0299284 0.0293322 0.103957 0.157231 -0.0571003 0.0602664 0.0999175 0.0615316 0.0589214 0.104928 -0.0136789 0.0461239 -0.0487898 0.124514 0.0406374 -0.0134854 -0.0119197 -0.108362 -0.0849549 0.0800141 -0.0163265 -0.050704 -0.0900126 0.109768 0.114526 -0.10012 0.0893063 0.061028 -0.136182 0.0955346 -0.0277466 -0.0742941 0.00543555 0.00302531 -0.0547246 -0.00136105 -0.0195675 -0.11894 -0.0416563 -0.00682299 0.0246265 0.0650356 0.0900188 -0.0719667 0.00183071 -0.0790813 -0.0791879 0.0743763 -0.0904779 -0.0485871 -0.137943 -0.0490903 0.0645844 0.0824925 0.0598286 -0.109047 -0.126552 -0.0143651 -0.0128416 0.0963619 0.105548 -0.066755 0.016639 0.0156274 0.0716261 0.0575809 0.0242466 -0.0803335 0.0181842 0.0311881 -0.0086399 -0.00997003 -0.0566293 -0.059989 0.00554928 -0.00412028 -0.0848204 0.0699963 0.0797376 0.0269705 -0.00419311 -0.077777 -0.0566211 0.087265 0.0370155 0.109784 0.0825966 -0.0597208 0.0702548 -0.0642552 0.0333214 -0.0653566 0.0450549 -0.0677833 0.0235613 -0.0966277 0.0598886 -0.0556032 -0.0956161 0.0247135 0.0700931 0.00938502 0.00318879 0.0951978 0.0115258 0.0581382 -0.0219426 -0.0463326 -0.0179932 0.0571466 0.0857693 0.096844 -0.051514 0.0358028 0.100362 -0.0694266 -0.0479109 0.0627133 -0.0995756 -0.0400935 -0.0492937 0.0640794 0.0576541 -0.0583167 0.0330551 -0.128063 0.070373 0.109016 0.109844 -0.112198 -0.12061 0.03651 -0.0354747 0.0229571 0.0824151 0.0526021 -0.0404162 0.138704 0.0851116 -0.111887 0.0284268 0.0951189 -0.0282186 0.120291 -0.0791935 0.0778685 0.0986479 -0.0512657 -0.0876811 0.0119161 0.00867227 0.070222 0.110562 -0.0908759 -0.0148447 -0.057697 0.120156 0.0772804 0.0135073 -0.0709861 0.0126809 0.118759 0.0617709 0.0868496 -0.066177 -0.144688 -0.109945 0.101159 0.0664543 0.0734086 0.135076 -0.070441 -0.0614416 0.0680998 -0.0687718 -0.0730613 0.0903695 0.00938921 -0.0381508 0.0659795 -0.0352739 -0.0410997 -0.023566 -0.0697267 -0.119913 0.0709961 -0.118513 -0.0634807 0.00383086 0.0457984 0.0810159 6.16586e-05 0.0736341 0.0576536 -0.0899287 0.0729361 0.0175539 -0.068236 -0.000766661 0.0921285 -0.0699766 -0.0253826 0.013135 -0.0898116 0.0190213 -0.0926043 -0.132015 -0.0526401 -0.0869247 0.0941242 -0.0325986 0.0235955 -0.109279 -0.047934 0.0992697 -0.041573 0.0635316 -0.0133893 0.0645555 0.0287692 0.0142367 -0.10493 -0.108168 0.0279176 0.0479816 0.0212652 -0.0421495 -0.0369875 -0.00106272 0.0756254 -0.0685577 -0.0654648 0.00425091 -0.0423746 -0.0285244 0.0399417 -0.0115206 -0.118106 -0.123118 0.120927 -0.0261563 0.0509905 -0.0465797 -0.0838727 -0.0345551 0.0407817 0.0236758 0.0369611 -0.0648453 -0.0410503 0.0131529 -0.0565947 -0.130355 -0.0517404 0.0757898 -0.00801909 0.0691526 -0.031805 -0.116918 0.0968006 -0.00463943 0.0753028 -0.027535 -0.0430287 -0.00103875 0.0437785 -0.0809917 -0.0234708 -0.0396762 -0.0924916 0.0117186 -0.0864457 0.0156887 0.0827375 -0.092084 -0.0686735 0.0113994 0.0494961 -0.00797737 -0.0562373 -0.0639797 0.0363889 -0.0756236 0.0979934 -0.123544 0.07242 -0.0375117 0.0813061 0.0465641 -0.0259377 0.0185722 0.0104624 -0.0339236 0.00412308 0.14461 0.0148912 0.004197 0.0434557 0.0420683 -0.0811856 -0.114311 -0.0585586 0.107667 -0.0582193 -0.0914756 -0.0281594 0.0940229 -0.0644384 0.0470999 0.0173502 -0.0773498 -0.00914235 0.0402407 0.0957272 0.0804376 0.115573 0.0751893 0.0064805 -0.118986 -0.054554 0.00850746 0.108707 -0.128214 -0.0470102 0.0321413 0.0664839 0.0790068 -0.0594518 -0.0313569 0.114644 0.00352644 0.0277607 -0.0853034 0.126896 -0.0235339 0.0307675 -0.011871 -0.0812488 0.0234812 -0.0230926 0.0575869 0.102361 0.0953685 -0.070222 -0.00715499 0.126065 -0.0262545 0.00919114 0.0463918 0.105264 0.0274252 -0.0872861 -0.103629 -0.116625 -0.0681769 0.0870136 -0.0545742 0.136357 0.0935296 0.00151518 -0.00774752 -0.0203985 0.0625949 0.0128926 -0.0335287 0.064515 0.114547 0.0812249 0.0775841 0.0824806 -0.025977 -0.0451363 0.0588295 0.107378 -0.0101784 0.124867 0.0459857 0.0679771 0.0116963 -0.105509 -0.086364 -0.011386 0.119661 0.0568554 -0.014102 0.0436769 -0.00687061 0.110608 0.050653 0.112742 0.0450676 -0.0613011 0.13287 -0.0872742 -0.0591025 -0.0957816 -0.0622311 0.0521482 -0.107968 -0.0592238 0.0268421 -0.0945883 -0.01598 -0.0568764 -0.0904103 0.0201434 0.07345 0.106055 -0.0494579 0.0356518 0.10677 0.0547047 -0.090508 0.117155 0.0949818 -0.0959778 0.0503647 -0.0829614 0.0809339 0.0823312 -0.0529068 -0.125284 0.0622097 -0.0137147 0.073648 -0.0731988 -0.0661171 0.103827 0.0462637 0.0766748 -0.0552875 -0.0346693 -0.114467 -0.034958 -0.00641533 -0.0196299 0.0761301 -0.0681633 -0.0357146 0.0686115 -0.0402342 0.0959769 -0.0688909 -0.0354888 -0.0586394 -0.0983784 -0.0539705 -0.0850108 -0.0956209 0.0222447 -0.124336 -0.113756 -0.0176778 -0.0591045 0.134967 -0.100179 -0.0175162 -0.00630834 -0.0991661 -0.0755542 0.073572 0.124647 -0.0363174 -0.0247521 0.00911662 -0.0363464 0.0546832 -0.0139975 -0.0462451 0.0755886 0.0176793 -0.0456118 -0.0335837 0.00221911 -0.0477012 0.0780921 -0.0424588 -0.0395695 -0.0233967 0.113673 0.023926 0.0101881 0.0952621 0.0317368 -0.0168884 -0.00851841 0.0870031 -0.0282344 0.0502841 0.0512561 -0.0398159 0.0478633 0.0583189 -0.0501413 -0.112036 -0.118525 -0.132783 -0.151156 -0.0449028 -0.00947382 -0.0523212 3.94251e-05 0.038953 -0.132536 0.0619664 0.100854 0.106595 0.042905 -0.129902 0.0731903 -0.119856 0.11643 0.0849775 -0.121591 0.0989095 -0.070661 0.0913702 0.0971544 -0.059395 0.0456142 -0.0133782 -0.0142222 0.113642 -0.108956 0.0286398 0.0584312 -0.0731521 -0.00211187 -0.0117583 -0.117242 -0.0236487 -0.010471 0.105598 -0.00295715 -0.028643 0.0999104 0.0877888 0.0281682 0.0576676 0.0225464 -0.0979029 0.049847 -0.037035 -0.0951683 -0.023088 -0.0487287 -0.116292 0.102761 0.0419031 -0.00109895 0.0774918 0.11723 0.0977638 -0.0773884 -0.0612744 -0.116433 0.00459223 -0.0469841 0.0169039 0.0069767 0.11234 0.0272097 0.0538804 0.0222225 -0.0146456 -0.113739 0.0161885 0.0723736 0.00833306 -0.0332378 -0.00342516 0.0542681 -0.0855061 0.0656987 -0.07035 -0.0414935 0.102115 0.0128225 0.0352546 0.0172277 0.0310427 -0.118473 0.0645582 0.030527 0.0375945 -0.0582006 -0.116973 -0.11616 -0.0496378 -0.059343 -0.000805227 -0.0812378 0.0950198 -0.0423337 -0.0146107 -0.0715987 0.0528213 0.0892948 0.00350485 0.000278048 -0.116179 -0.0725485 0.0537563 -0.0171253 -0.0223283 0.0625589 -0.110131 -0.0239197 0.0677767 -0.113284 -0.065826 -0.0386498 0.0736144 0.00499311 -0.00241304 0.0741066 -0.0295543 -0.0431612 0.00545444 0.137906 -0.103066 0.00123016 -0.0850049 0.00964615 0.0652194 0.0477957 -0.0914815 -0.0696031 0.0556694 -0.00247958 0.0812831 -0.083368 0.0498192 0.0734656 -0.112078 0.0904588 0.0441168 0.0945553 0.0589556 0.0500805 0.0540835 -0.0905044 0.104374 -0.0984977 -0.0459242 -0.0232979 -0.0377062 -0.138773 -0.0750776 -0.0176692 0.0489297 0.0594519 -0.0150787 0.000927449 -0.0962765 0.0201011 0.0179295 0.0290992 -0.0455096 -0.035384 0.123637 -0.0392327 -0.0530399 -0.0442361 -0.0473501 -0.021742 -0.11779 -0.099144 -0.00938091 0.0283049 -0.0218143 0.103551 -0.0425529 0.0615752 0.0816485 0.107926 0.123022 0.132083 -0.0707794 0.0119881 0.0248744 -0.00105077 0.0355961 0.086786 0.0899648 0.0446658 -0.00147902 0.0744249 0.0853098 0.0896064 -0.132673 0.108754 0.0837522 0.123524 0.0870472 0.0914912 0.052365 -0.0350017 -0.133521 -0.0321238 -0.11499 -0.0272466 -0.0257959 -0.0355657 0.127402 -0.0745131 -0.0718261 -0.11731 -0.0358056 -0.0458296 -0.00308346 -0.102616 0.0742918 -0.0912961 0.106071 0.0935096 -0.101854 -0.0742632 0.120797 0.0499691 -0.0639565 0.106355 -0.0133267 0.0548809 -0.00379119 -0.074471 0.108112 -0.00850943 -0.0335986 0.0523448 0.12504 -0.0904814 0.0593692 0.0890064 -0.0652968 0.0305043 -0.0140604 0.051243 0.0789931 0.00232267 -0.114698 0.089886 0.0586892 -0.0216153 -0.0675618 0.0925139 0.0534922 0.0774296 0.0659309 -0.0590928 0.0486753 0.0666693 -0.0926483 -0.00344357 -0.000834455 0.0220779 0.0465873 0.0543694 -0.00336759 0.108583 0.120789 0.0755458 -0.0639495 0.0835512 -0.0634026 0.0472326 -0.0929944 -0.0940859 0.0534678 -0.00878937 -0.100823 -0.108361 -0.12732 0.0433147 0.0369172 0.00216654 -0.0799246 -0.0713452 -0.148933 0.161279 0.0961276 -0.048622 -0.085951 0.119061 0.0171671 0.0531251 -0.0878919 0.127175 0.0780565 -0.0779712 0.0935532 0.0458887 0.086689 -0.115152 -0.0560507 0.0604568 0.0313435 0.0389082 -0.00614438 -0.103695 0.102556 -0.116621 0.0172596 -0.0568361 -0.116238 0.0556435 0.0845265 0.0681531 0.0954246 0.0189834 -0.00331582 -0.0948662 0.0788509 0.0921253 0.00939779 -0.0332781 -0.0963878 -0.091738 0.0927618 0.021923 -0.0960748 -0.00851859 0.122137 0.103876 0.0301583 -0.0796403 -0.0686344 0.0615335 -0.0439036 0.13629 0.0932367 0.0284795 -0.0783345 -0.0382329 0.019251 0.0642989 -0.0631436 -0.0065285 0.0662202 0.0165667 0.0554859 -0.0202679 -0.0337811 -0.0351404 0.103769 -0.0320789 0.0105113 -0.0463526 -0.0270664 -0.0901205 -0.0068212 -0.0086415 0.0998708 0.0980512 0.0873329 0.0415761 -0.100705 0.000980133 -0.0544795 0.119768 -0.0256214 0.046593 0.0789444 -0.108033 0.00807641 -0.0933333 0.0290375 0.00862706 0.092608 -0.0627989 -0.0287857 -0.0537483 0.061877 0.0089308 -0.0483085 0.0809385 -0.124606 -0.0944017 -0.10853 -0.0121984 0.137131 -0.0696644 0.0398158 -0.0461467 -0.0557566 -0.0689465 -0.0872488 -0.0874105 -0.0525078 0.0932114 -0.104454 -0.0302642 -0.124312 0.104135 -0.022294 0.103698 -0.0163897 -0.00335895 -0.0772455 -0.0874165 -0.14396 -0.0568408 -0.0535534 0.0546553 -0.0694558 -0.0901379 -0.0710056 0.0768088 0.00283854 0.0566417 0.0104715 -0.08891 -0.0675312 0.0147524 0.0737485 -0.00726445 -0.0108057 0.0958872 0.0445574 -0.0594742 -0.133898 0.0611546 0.0898963 0.116619 0.0187747 -0.0751542 -0.013631 0.112553 -0.113731 0.0737849 -0.0659333 0.0981165 0.0643056 -0.1207 -0.0631134 -0.0118699 -0.0279516 -0.105641 -0.0653432 0.11078 -0.108342 0.0177419 0.147427 -0.108993 -0.0633651 -0.0754645 -0.0496864 0.0380206 -0.0687594 -0.00204369 -0.102639 -0.0204769 0.123022 0.0249885 -0.108543 -0.0265629 0.0848247 0.0794242 0.118309 0.025119 0.101739 -0.053536 -0.0413704 -0.140239 -0.0844472 0.119146 0.0278908 0.0515674 -0.106462 0.0861663 -0.0025062 0.0333331 0.0584019 -0.0992564 -0.0759315 -0.0258339 0.0951476 -0.107252 -0.0833815 0.0565378 -0.0150133 0.0538986 0.0794438 -0.134715 0.0390231 0.107973 0.0833297 0.0406637 0.0328702 -0.0350762 -0.0668879 0.0730476 0.0940275 0.077366 -0.0877205 -0.0647759 0.106684 0.0195707 -0.10307 0.0311688 -0.101243 0.061635 -0.111742 0.137201 -0.00950081 0.112677 -0.0455393 -0.106701 -0.0635426 0.12024 -0.0376999 -0.0992227 -0.0594379 -0.00302242 0.11792 -0.0181985 -0.00379345 0.0733431 0.0450126 0.120401 0.0728228 -0.0675997 -0.0466303 0.0578334 0.00959534 0.100546 -0.112642 -0.0857545 0.020956 0.0197271 -0.00499304 0.0928757 0.0163609 0.0752816 0.129798 -0.120721 -0.0516904 -0.0963457 0.102458 0.100671 0.104595 0.0929468 -0.0929711 -0.0814959 0.0890059 0.0385129 0.0149803 0.0576858 0.028393 0.0327111 0.102322 -0.113951 0.0824171 -0.0827075 0.0947386 0.033018 -0.0128045 0.112463 -0.050722 0.0987282 -0.00599995 0.0827289 -0.0361712 0.0970068 -0.0142528 -0.0568269 -0.0550055 -0.0510983 -0.0547897 0.0911745 -0.116619 0.0165697 -0.100162 0.0745954 0.100658 0.0744233 -0.100428 -0.0818435 0.126291 0.00697707 -0.0687559 0.0780696 -0.0356634 0.0157286 -0.0111699 0.0879807 0.00149651 -0.10019 0.0874016 0.00742226 0.0932806 0.0419489 0.0442301 0.0795269 0.11104 -0.0730342 -0.141623 0.0285139 0.113298 -0.00758357 -0.0209339 -0.0807971 0.110409 0.0704495 0.0150111 -0.0886878 -0.0984602 0.0197502 0.00938843 -0.0500348 -0.0861866 -0.0964276 -0.0756336 -0.150326 0.0405872 0.0745285 -0.0555953 0.106622 0.0357523 0.0154769 0.0249709 -0.036577 -0.0326469 0.0490722 -0.086268 0.067252 -0.0310771 -0.0950926 -0.00644796 0.0482656 0.0945304 -0.0548102 -0.0572872 -0.135791 -0.0356513 0.0669924 -0.118728 0.0543607 0.103696 0.029798 0.0419061 0.0119532 0.00588325 -0.118332 0.10664 -0.0881347 -0.0253866 -0.0917381 0.123103 -0.0163854 0.0146926 -0.142538 -0.105407 0.00342425 0.0259229 -0.107874 0.0158048 -0.0891102 -0.0858445 -0.0672031 0.0855502 -0.0254801 -0.0265839 -0.0726529 0.0773949 0.022034 0.070096 0.0417141 0.05365 -0.103318 0.0810287 0.0477577 0.0444734 -0.0897837 0.0402158 0.0354566 0.0762449 -0.0242087 -0.0550792 0.0911812 0.0796791 0.0468655 -0.0647384 -0.061351 0.0345473 0.0339633 -0.123462 0.110778 -0.0619297 0.0695916 -0.103774 -0.125671 -0.0469018 0.0541287 -0.123357 -0.131333 -0.0813773 -0.0377095 -0.067841 0.00272275 0.0834212 0.0168114 -0.0203968 -0.0572688 -0.0330263 0.118344 -0.0627265 -0.0198392 0.0493241 0.0192687 -0.0755801 0.116509 -0.134517 -0.078488 -0.121675 0.119363 -0.0970422 0.0590054 0.0336281 -0.037875 -0.0596002 0.0110376 0.061394 -0.110985 -0.103615 0.0950067 -0.0566611 -0.0189137 0.0720217 -0.0501288 0.0334494 -0.132789 -0.084337 -0.060163 0.0958145 0.117812 0.0346009 -0.0345522 -0.00689379 -0.0176005 -0.081726 0.0851281 -0.0192403 -0.0795848 -0.118148 0.111595 0.0824085 -0.108111 -0.0247036 0.08156 0.0717735 0.0178006 0.0976318 -0.0376034 0.0349628 0.0863404 -0.0311421 -0.0779775 0.0695991 0.064767 -0.125875 0.041125 0.104364 -0.0999578 -0.11353 0.0720265 0.080337 -0.114294 -0.125347 0.0581613 -0.102367 0.0882298 -0.0690453 0.0567324 0.0984857 -0.0354263 -0.0188088 -0.0612472 -0.139405 -0.143985 -0.0401204 -0.000150099 0.0802056 0.0858123 -0.000145723 -0.119695 0.0654826 -0.0695801 -0.0611377 -0.108312 0.0984549 -0.0722133 0.0859377 0.0486769 -0.0207831 -0.122477 -0.087586 -0.114749 -0.0343243 -0.0167329 0.112764 0.126223 0.0808071 -0.106552 -0.030986 -0.0433426 0.114609 -0.03741 -0.029257 -0.0248558 0.00566986 0.0734495 -0.0274361 -0.0552514 0.0397016 -0.0304357 -0.00870227 -0.120437 -0.106076 -0.0501234 -0.00797094 -0.117851 0.0419483 0.0156738 -0.0332835 0.0179 0.104841 -0.0264813 -0.106927 0.0723754 -0.0906431 0.0631071 -0.0584929 0.0375571 -0.0746391 -0.0380611 0.0739318 0.10872 0.0836857 -0.0247195 0.0164485 -0.0189136 -0.112886 0.048117 -0.108204 -0.0635041 0.0931587 -0.018051 -0.128545 -0.0564059 -0.109661 0.10897 -0.0437625 0.0841994 -0.0293943 0.0145348 -0.104955 -0.0942039 0.0160695 0.0966935 -0.0775578 0.0703149 0.0325259 -0.0724614 0.12333 0.122593 0.0645232 -0.0703513 0.0391608 0.12568 0.0370285 -0.00721952 0.0887949 -0.0680977 0.0272617 -0.0494763 0.0390116 -0.0168101 -0.0403241 0.0310939 -0.0309478 0.141958 0.0419643 0.00342207 -0.0706951 -0.0406385 -0.04686 -0.0332787 0.0643578 -0.0150682 -0.0813761 0.0493305 -0.0436278 -0.00187918 0.0102195 -0.0259308 -0.0116738 -0.0148814 -0.0986297 0.0150039 -0.101547 -0.0910009 -0.119624 -0.030847 -0.0891622 0.0742346 0.00878813 -0.0172294 0.0523316 0.0512033 0.111784 0.115323 -0.0835786 -0.00339497 -0.126623 -0.00900501 -0.0219041 0.0179653 -0.107557 -0.0296054 0.0447636 -0.105414 0.0343592 -0.0542231 -0.0849454 0.0564592 -0.0607254 0.0229834 0.0771253 -0.0426348 -0.0212942 -0.0780488 0.0211565 0.110312 0.0343853 -0.00669433 0.0291718 0.0161047 0.0790236 0.0680005 0.00843002 0.0444622 -0.0695296 0.0984666 0.0502789 0.103594 0.0290363 0.0909648 -0.0561211 -0.0181007 0.0793073 0.088488 0.0461905 0.095384 -0.0892254 0.0832317 -0.0862695 0.0846063 0.0887765 -0.0152916 0.0659256 0.0100235 -0.0480787 0.145083 0.106001 -0.0708498 -0.0711522 -0.127324 0.0334496 0.0882847 -0.0225397 -0.00451552 -0.0232288 0.0414782 -0.0955781 0.0351213 0.0115295 -0.0808319 -0.0184458 -0.0465764 0.101558 0.0761966 0.0144792 0.062808 0.0407805 -0.0568074 0.0852919 0.00069346 -0.0767051 0.104356 0.013083 0.0405733 -0.0994025 -0.0425685 0.042755 -0.11126 0.0572457 0.0213137 -0.0286097 0.0720009 0.0301099 0.0148238 -0.126393 -0.122514 -0.118074 -0.0745953 -0.0427113 0.020547 -0.00787467 -0.0789003 -0.0552582 0.123325 0.0189084 -0.0627226 -0.0115397 -0.0732791 -0.0642538 -0.0699435 -0.0669204 0.0634995 -0.0651454 -0.104529 -0.124469 0.0466708 0.084211 0.100385 -0.0568621 0.0775303 0.0202837 -0.0948892 0.0565962 0.124777 -0.0364267 -0.0188654 -0.0251889 0.0420391 0.0170941 -0.118363 -0.133678 0.0662847 0.138883 -0.0593659 -0.0723241 -0.0743063 -0.0815238 -0.028325 -0.0404666 0.0832927 0.0454636 -0.0120104 0.0920586 -0.0600192 0.0751449 0.0161744 0.119174 -0.081278 0.0585427 0.0846627 0.0475275 -0.0877135 0.125111 -0.0359422 -0.0528527 0.0218418 -0.0371441 -0.0845536 0.107825 0.109883 -0.097133 -0.0493467 -0.0814339 0.0174866 0.108381 -0.108136 -0.0112989 -0.026938 -0.0957693 -0.020489 0.0186411 -0.109972 0.0420296 0.0792622 -0.00687531 0.0386912 -0.033887 0.0326338 0.0452532 0.0660411 0.00723711 0.0854667 -0.102287 0.0483189 0.0505499 -0.0918727 -0.0631188 0.0412538 0.109536 0.0363958 -0.131601 -0.030778 -0.0846701 -0.0414395 0.00328008 0.171914 0.0878813 0.0956973 0.0305624 -0.0820404 0.170241 0.0793865 0.097954 0.0410844 0.104677 -0.0838699 0.100413 -0.0950186 0.0753288 -0.0168036 -0.0560794 0.0166429 0.0185406 -0.0772657 0.0969182 0.12082 0.11096 0.0629617 0.0214859 -0.0676652 -0.0841405 0.0612672 -0.00214438 -0.00499773 0.0732297 0.121623 0.11038 0.103424 -0.105348 -0.0283199 0.00620003 -0.0390575 0.0587809 0.119358 -0.0521871 -0.0472994 0.0011511 -0.0586484 0.0137536 -0.0882504 0.101339 0.0368263 -0.128094 0.0787872 -0.129408 0.0782716 0.0412673 -0.113153 0.0643428 -0.023218 -0.055689 -0.0784826 0.0191813 -0.0403152 0.017007 0.0145826 0.000171864 0.102073 0.0623731 0.134344 -0.0987224 0.0299626 -0.0688458 0.0206399 -0.074188 0.0966846 -0.111892 0.0461096 0.0841129 -0.0706632 -0.0194773 -0.0868186 0.0569358 0.0854426 -0.00943048 0.0132846 0.0517986 -0.035347 -0.0838536 0.109698 0.0513331 0.0694234 -0.0759314 0.0780366 -0.066224 -0.0736149 0.0515346 -0.0133015 -0.0103901 0.0727537 -0.0726302 -0.0192665 -0.0617425 0.132144 0.05774 0.000445655 -0.0959973 -0.0419596 -0.00680178 -0.0577824 -0.0120487 -0.0825224 -0.0181046 -0.104051 -0.000790188 -0.0843659 -0.074112 -0.0643555 0.0939709 -0.0726965 0.0567609 0.0522634 -0.127133 -0.118719 -0.0601248 0.00351516 -0.0941967 -0.0243677 -0.0483402 0.0846542 -0.0500905 0.0788504 0.0471349 0.0232202 0.0454977 0.0221457 0.0294754 -0.0624502 0.0958853 -0.0585934 -0.048668 0.0525166 -0.00754714 -0.0230701 -0.0835572 -0.0869811 0.0235192 0.0852761 0.0617555 0.0557821 -0.0318009 -0.0607013 -0.00826569 0.00397206 0.0395012 0.0677799 0.082647 0.110688 0.032799 -0.0311555 0.0452696 0.0740644 -0.0847056 0.0373025 -0.0134492 -0.0298011 -0.109795 -0.012243 0.13197 -0.138684 -0.075164 -0.0237555 -0.139899 -0.00163847 -0.123049 0.0262982 0.0943224 0.0902326 -0.00248723 -0.0988142 0.0662524 0.0822583 -0.0714575 -0.0779106 0.0374126 0.0343344 0.0141663 0.0721127 0.101237 0.00915861 0.0112401 0.0309331 -0.0336558 -0.0880446 -0.0177284 -0.0835483 0.0313846 0.0889646 0.0234672 -0.0681562 0.0318484 -0.0253132 -0.0303976 0.0695696 -0.0447981 0.072164 -0.0104044 -0.0491937 -0.109036 0.0028903 -0.12577 0.0984967 0.00239557 -0.0922451 -0.0641195 0.0338958 0.103412 0.113159 0.0523898 -0.0235814 0.0366287 0.010039 0.0938084 0.0864801 0.106169 -0.0551432 0.041705 -0.040529 -0.0529075 0.0655154 -0.147514 0.0225964 0.0916971 -0.0812273 0.0349146 -0.0525631 0.0297341 -0.0695333 0.0534267 0.0625575 -0.0515361 0.125351 0.0161148 0.0675776 0.0892048 -0.0114638 -0.0686975 -0.00397008 0.0866192 -0.111321 0.000779679 -0.086173 -0.0649586 0.111623 0.029131 0.130127 0.088352 -0.0108662 -0.0175826 0.0015977 -0.054963 0.0419806 0.0908632 0.0147537 0.125699 0.0691739 0.0299065 0.019641 -0.104131 0.0162303 -0.114953 -0.129703 -0.0818999 0.0585094 -0.074089 -0.101065 0.0922426 0.11193 -0.113941 -0.0128572 0.0672069 0.0911653 -0.05846 0.0406363 0.106206 0.110964 0.0709247 0.0865872 0.0722048 -0.0344325 -0.00352013 -0.12999 -0.0277986 0.0711848 -0.0532681 0.0178641 0.101736 -0.0673497 -0.0538473 -0.110127 0.0279293 0.0793007 -0.0534594 0.00486426 -0.0761023 -0.0449446 -0.114902 -0.113053 -0.0446179 -0.086063 0.0084327 -0.0986119 0.0300742 -0.0253129 0.133989 0.0800563 0.0465672 -0.010352 -0.101406 0.00862317 -0.0824127 -0.0108606 -0.048113 0.0687335 -0.0645392 0.0894563 -0.0800876 0.0681123 -0.0473261 0.0892053 0.057587 -0.00325017 -0.0653706 -0.0216892 -0.0628826 -0.113234 0.00126044 0.0088366 0.076607 0.0196871 -0.0144673 -0.0764557 -0.035029 -0.0139452 -0.0577308 -0.0046169 0.0267439 -0.0442956 -0.0298663 -0.127577 -0.0141727 -0.0598735 0.0285984 -0.0893369 -0.10143 0.0648799 -0.1227 -0.0519833 0.0139729 -0.111557 0.0140569 -0.102909 -0.0786336 0.0979696 0.123049 -0.00153227 0.0658193 -0.0310451 0.0840769 -0.0301667 0.0676454 -0.0805381 -0.105696 0.0616945 -0.126677 -0.068355 -0.0573933 0.0628565 0.0625694 0.0139946 0.00790866 0.0640495 0.10026 -0.0970064 -0.107912 0.0671588 -0.0441245 0.0228052 -0.0353915 0.0474429 -0.0472254 -0.105119 -0.0184197 0.0705722 0.0606944 -0.117017 -0.0564228 -0.108678 -0.0234242 -0.0844794 0.0961319 -0.0942975 0.101008 0.0628697 -0.0942589 0.0802151 0.0683289 0.0668849 0.0330207 0.0330177 0.124499 0.0967663 -0.102189 -0.0775381 0.0311412 0.0579439 -0.109441 -0.122138 0.00627085 -0.117508 -0.0223313 -0.0401286 0.0103092 0.0976902 0.071525 -0.00184133 -0.0765506 -0.0452136 0.00150758 0.027241 -0.0153686 -0.0240891 -0.0644819 -0.0471954 0.0104133 0.0195256 -0.0311129 0.105048 -0.0796696 0.0476374 0.109941 0.102278 -0.112955 -0.0710885 -0.0408809 -0.050207 0.0402076 -0.0399494 0.0358741 0.123694 0.0931983 0.0583379 0.0121517 -0.0270791 -0.0859666 0.0296184 0.00300733 -0.0503931 0.0119181 0.101717 0.0180107 0.0686301 -0.0131238 -0.00414858 0.0970886 -0.0122296 -0.0954477 -0.0509135 0.128187 -0.133994 0.0323034 0.0342114 0.12002 -0.0508513 0.0323981 0.0717167 0.0373876 -0.0409952 0.0231595 0.110075 -0.0643214 0.055291 0.115871 -0.127004 0.0410665 0.0405088 -0.0962508 -0.00409317 0.00522708 0.122196 -0.093624 0.0905228 0.0506088 -0.0740818 0.0496609 -0.0165348 -0.0976152 0.0663238 0.0149733 0.0656576 -0.0541895 0.0914247 0.100828 0.0299632 -0.0597971 -0.0120049 -0.0613409 0.0681556 -0.00527394 -0.0967184 -0.0447847 0.0583877 0.0345046 -0.0801143 0.0621323 0.0848237 -0.0473361 0.078156 0.0166401 -0.017357 0.059091 0.0516255 -0.0809938 0.0291024 0.0853205 0.023957 -0.068986 -0.100248 0.0466509 0.124081 0.100267 -0.106343 -0.11785 -0.00933181 0.0361594 0.0710096 0.118039 -0.0531149 0.07423 -0.0614689 0.0557017 -0.0645709 -0.0668471 0.0607703 0.0706409 -0.0502407 0.0363882 0.013534 -0.0583016 -0.0457704 0.0358093 -0.0619347 0.161437 0.129097 -0.0276873 -0.013788 0.110889 -0.0402388 -0.0333053 0.0728326 -0.0313356 0.0255353 0.0618932 -0.0822296 -0.0957279 0.0354185 -0.0397817 -0.101563 0.13416 -0.0773693 0.0402082 0.113857 0.0736062 0.111301 0.0616628 0.0377459 0.0820664 0.0307643 -0.0600981 -0.116369 -0.065566 0.0306746 0.0420399 -0.0553586 -0.0234065 0.00692852 -0.0400162 0.0520717 -0.012533 -0.0193407 0.0799968 -0.00217618 0.0100822 -0.0394755 0.0241359 -0.0370526 0.0128938 -0.111471 0.00203712 -0.0997085 -0.00303506 0.0191855 -0.0392294 0.0609115 -0.0735041 -0.0751795 -0.0843195 -0.13717 -0.104806 -0.108458 0.105203 0.0358215 0.0960647 0.0882874 -0.00375547 0.0612627 -0.0189668 -0.0593713 0.0463954 -0.0734289 0.0160241 0.0162105 -0.0998617 -0.122958 -0.0728326 -0.116927 -0.0715811 -0.0573287 0.11128 0.0973856 -0.14294 0.0710276 -0.0976717 -0.104015 0.103732 0.0844594 -0.0829359 -0.062207 -0.0294606 0.100074 -0.0773464 -0.0400647 0.0604792 0.0875815 -0.0356523 0.139593 -0.0588923 -0.0478969 0.0950713 -0.0551601 0.105181 0.0515002 0.0757416 -0.0513905 0.0863004 0.101555 -0.0488782 0.0449849 -0.0421727 -0.0275812 0.0189095 0.0560918 0.0310633 -0.0799298 -0.0666505 0.0223087 0.102464 -0.0353767 0.0986717 0.0932894 -0.0600707 0.0721396 0.0674945 0.0692544 0.0514138 -0.117713 0.0939122 -0.0544505 -0.0707495 0.0450877 0.0129087 0.0577355 -0.0773006 -0.0699702 -0.00085545 -0.123829 0.0384515 0.0436698 -0.122985 -0.0436791 -0.0822359 -0.0110008 0.0831588 -0.0764655 0.0131217 -0.0907373 0.0791857 -0.011195 -0.0640556 0.0269779 -0.133286 0.0468451 -0.0965156 0.0698297 0.0738052 -0.0253284 0.0128645 0.103365 0.0368441 0.0799991 0.0205024 0.107002 -0.0623241 -0.111102 -0.0206226 -0.0111178 0.0300428 0.118414 -0.0318677 -0.0442621 -0.113482 -0.107138 -0.05454 -0.112762 -0.0804878 0.0447018 0.0197665 0.071555 -0.126045 -0.0341838 0.00203603 -0.0428729 -0.0328782 0.0804567 -0.0060851 -0.108608 -0.0924486 0.0879427 0.0982382 -0.026502 0.097392 0.0478954 -0.0819846 0.0056704 -0.0446184 -0.0170656 0.00452108 -0.0341279 0.0444575 0.0913876 -0.0715378 0.0614677 -0.0748991 -0.115631 0.00118054 0.0504315 0.0616676 -0.0662366 0.0691281 -0.0826619 0.0889981 0.0369918 0.00582893 0.012941 -0.079745 0.102669 0.0168777 -0.0167909 -0.0841416 -0.00656831 -0.0643021 -0.0250388 0.00102811 0.101874 0.0217876 -0.0262418 -0.0676548 0.101511 0.0516694 0.0293268 0.0373436 -0.0771162 0.0176817 -0.0992244 -0.116435 0.0719892 0.130905 0.0356783 -0.0509289 0.0425369 -0.0569696 -0.0829762 0.0459226 -0.0202982 -0.0628908 -0.0879881 0.0324443 -0.0861159 -0.00295475 -0.0761671 -0.0373618 0.0461226 -0.0011664 0.091853 0.032886 0.0357466 0.106934 0.121591 0.0705578 0.00334338 0.119141 0.00215471 -0.0683436 0.0271852 -0.0929824 0.0700336 0.0766858 -0.0024021 0.040624 0.101867 0.0144067 0.0951631 -0.118219 0.140408 -0.0298502 0.0832754 0.0259934 0.0791759 0.113671 -0.117896 -0.0410035 0.0430108 0.0700487 0.136085 -0.0211449 -0.107201 0.0945551 0.0666454 0.00315862 0.123313 0.103593 -0.0645109 0.054394 -0.0499727 -0.0367891 0.0645503 0.0327624 0.0314963 0.0865511 0.071992 -0.0797839 -0.0629957 -0.0500879 -0.122025 -0.0695003 -0.0149468 -0.00362773 0.0551015 -0.124961 -0.0548402 0.0469507 -0.0439061 -0.0984958 -0.0592581 -0.0864296 -0.0891074 -0.0818409 -0.0351485 0.144652 0.0122072 0.00796537 -0.0951739 -0.0202154 -0.0561505 -0.113712 -0.115472 0.0322581 -0.101713 -0.0445239 0.0551156 0.0778069 -0.0630724 -0.108472 -0.101183 0.0574295 -0.031858 0.0497518 0.112538 0.101173 0.0865529 -0.0927068 0.0636058 0.0453446 0.0774816 0.0149711 -0.103682 -0.106946 -0.0345134 0.0461053 0.044351 -0.0199964 -0.0344074 -0.0417937 -0.0597815 -0.0421902 -0.0637259 0.137574 0.0477192 0.0996275 0.078035 -0.0595471 -0.0195714 -0.0130705 0.113612 0.0857027 0.0223459 -0.00352164 0.0744182 -0.0456611 -0.127357 -0.0288607 0.000503408 -0.101938 0.071974 -0.017276 0.102053 0.0508439 -0.0786516 0.00416312 -0.0342959 -0.0431281 -0.0400661 -0.0393969 0.00803639 -0.11903 -0.0384039 -0.0764567 -0.0953621 0.0286155 -0.00501682 -0.113258 0.0272936 -0.0239063 0.0084278 -0.078118 -0.00399065 0.108988 -0.0903972 0.0474172 0.033393 0.052688 0.0596294 0.0270094 0.03233 -0.0734214 0.123322 0.00543946 -0.107288 -0.000945212 0.0620451 0.061285 -0.0137005 -0.0688057 0.0439538 -0.0873523 0.0720001 -0.11823 0.0164779 0.0967261 -0.0306578 -0.00516186 0.126246 -0.06311 -0.114993 -0.0760155 0.0340185 -0.132319 0.0142631 0.103942 0.0828753 -0.0561274 -0.0123032 -0.113228 -0.10102 0.00517754 -0.059176 0.0665417 -0.0782802 -0.104013 0.137152 0.0996857 -0.0108522 0.0522685 -0.0105649 -0.00504662 -0.068683 -0.088075 0.0588533 -0.125725 -0.049098 -0.0736578 -0.00539665 0.0383159 0.129933 -0.08994 0.0622946 -0.106297 -0.0665508 -0.0400603 -0.0510441 0.0275669 -0.0898979 0.113955 -0.0103394 0.0603947 0.0280695 0.0876802 -0.0657191 -0.0529277 -0.061542 0.0999794 -0.0598022 0.0674559 -0.0554028 -0.0440094 -0.0628572 -0.0899658 -0.0749454 -0.0718458 -0.105598 0.122626 0.109967 0.0510497 0.0185716 -0.0335576 0.0835676 0.111148 -0.0575977 0.0404036 -0.0367504 0.0960882 0.0135 -0.133441 0.0501457 0.084409 -0.0523285 -0.0248139 0.140799 0.051118 0.0713052 -0.00759848 -0.0671709 -0.0797334 0.0602965 0.0525533 -0.0331338 -0.105361 -0.0462769 0.00614279 -0.0783356 -0.0678098 0.0631405 0.0547314 0.00692009 0.0580661 -0.0982524 -0.01133 -0.0320868 -0.112773 -0.0278575 0.127136 -0.040075 0.103416 -0.100945 -0.142175 -0.0611407 0.119328 -0.0686898 -0.0591153 0.077872 -0.0781044 0.113678 -0.0389004 0.113851 -0.00933384 -0.0393184 0.0732754 0.0874715 0.0299657 0.0438693 -0.144225 0.0584142 -0.110511 -0.132612 0.0816015 0.00139746 -0.0939341 -0.068836 -0.124306 -0.000378924 0.0887232 0.0185741 -0.0619268 0.0479027 -0.0979396 -0.0809982 -0.0116013 0.128188 0.0304627 -0.0710017 -0.0616319 -0.0462281 -0.0901794 0.085404 -0.0234428 -0.112015 -0.0757829 0.0948315 0.0912751 0.0210472 0.0731645 0.00375535 -0.110779 0.0192778 0.0622279 -0.0552975 -0.0701672 0.0424226 -0.075334 -0.0219126 -0.0478818 0.0816402 0.0509547 -0.00818055 0.127099 -0.115972 0.0299617 0.041498 -0.12743 -0.069884 0.0715692 0.0148359 -0.120397 -0.0247569 0.0419018 -0.0196325 0.0588928 0.0311257 -0.0427438 -0.000200439 0.02172 0.032991 -0.0152201 0.156044 -0.0340047 0.11777 -0.0747217 0.0584383 0.0180832 0.0228378 -4.66316e-05 -0.111369 -0.0231548 0.116614 0.125407 0.0676827 -0.112619 -0.0882686 -0.0500041 -0.0773314 0.0461153 -0.0636199 0.0203438 0.118232 0.0405412 0.0718265 -0.00191659 0.0406692 0.115699 0.00660775 -0.0755318 -0.0525186 -0.00431838 0.0181259 0.0843424 0.0933264 -0.020744 0.00971919 0.00542338 0.09178 0.0904922 -0.105446 0.0624417 -0.0927178 0.00574579 0.0907025 0.106621 -0.138846 -0.120944 0.0171826 -0.0748133 0.00644294 -0.0736522 0.0139064 -0.0443459 -0.00701285 0.0985062 -0.0264765 0.0944244 0.0384771 0.0907819 0.0563462 -0.0449457 -0.027826 -0.125558 -0.0800562 -0.136706 0.0736214 -0.120039 0.0446705 0.0459426 -0.0547994 -0.0967832 -0.0669906 -0.0741418 -0.0725183 -0.1334 -0.0274659 -0.0834381 -0.0691563 -0.106715 -0.0182729 0.117809 0.0438164 -0.0253719 0.102057 0.0544293 0.0976445 -0.0584229 -0.0189858 0.061135 -0.0735944 0.0511509 0.0264621 0.0268168 0.0692002 -0.0768505 0.00540141 0.103648 0.0407021 0.0136805 -0.0896009 0.076087 -0.0396916 0.0631302 0.0240817 -0.035936 0.0711906 -0.0188764 -0.00753636 0.0571653 -0.134834 0.0317002 0.0245624 0.0260296 -0.071582 -0.0904642 -0.00870409 0.0962412 0.0155548 -0.0832333 0.102385 0.0125165 -0.0808042 -0.0967035 -0.0161446 -0.0596947 0.10561 0.00709995 -0.0350101 -0.0390288 -0.09231 0.101392 0.0336341 0.0785394 -0.111398 0.109094 0.0946626 0.0696663 0.0607771 0.123351 -0.0663479 -0.0683513 -0.0449817 0.067285 -0.0918148 -0.0390896 0.104168 -0.0407242 0.0992754 0.0359791 -0.093147 0.123723 0.0522108 -0.0214647 -0.0174992 0.0307018 0.107008 0.0246254 0.0463728 0.0658439 -0.0151623 0.0831194 -0.0998724 0.0994508 0.0254466 -0.0339384 -0.0116858 -0.0518806 0.0985304 0.118108 0.0150339 -0.0499032 -0.126046 0.0534189 0.118761 -0.164246 0.0581723 0.021617 0.0608567 0.0184849 -0.0777619 -0.0585669 -0.101149 -0.105229 0.000533762 -0.125203 -0.0692138 -0.140347 -0.0235967 0.115182 0.03493 0.0618426 0.0259345 0.108356 0.0397209 -0.0734042 0.0569536 -0.0746093 0.0407058 -0.0939804 -0.0442575 0.0271266 0.0348035 0.082816 0.134751 -0.0760041 0.0785289 0.031809 -0.00134238 0.0931355 0.0532359 -0.10292 0.0587838 0.00136978 0.0296233 -0.0835484 -0.0903288 0.013678 -0.0808887 0.128564 -0.0791907 -0.134523 0.0266905 -0.101252 0.109885 -0.00208231 -0.0774834 -0.0552849 -0.055563 -0.162196 -0.112852 -0.0390579 -0.0143325 -0.0100047 0.0792326 0.0598821 -0.0867492 -0.00306256 -0.0753729 0.051289 0.0897789 0.0991996 0.0918996 0.0706206 -0.0803924 -0.0389131 -0.0696324 0.0714484 -0.110064 -0.0952243 -0.0735601 -0.158462 -0.0773064 0.100956 -0.0486293 0.0151882 0.0399142 -0.12084 0.150212 -0.11982 0.116584 -0.0932551 0.0410397 -0.0323562 -0.0515172 -0.0606819 0.0705434 -0.133626 0.121996 0.053483 0.0161141 -0.124397 0.11088 0.0366894 -0.00174992 -0.100954 0.0146352 0.0776361 -0.0859677 -0.075963 0.0907254 0.0697598 -0.0149692 0.080554 0.0678829 0.104072 -0.0955149 0.0440293 0.0832856 0.0369424 -0.0808924 0.0583937 0.0365633 -0.0280866 0.0313104 -0.0873789 0.0915025 -0.0691172 0.0507468 -0.0526344 0.0252331 0.06513 0.115754 -0.130807 -0.0133955 -0.096452 0.0594191 0.100951 0.00504369 0.120142 0.03428 0.0615094 -0.0229322 0.00529105 -0.0549051 0.0419474 -0.078522 -0.0370623 0.03562 0.0793532 -0.06318 0.0422179 0.0644116 -0.00430899 0.0930292 -0.0329679 0.104513 0.108636 -0.0231056 -0.0548901 -0.0501054 0.133172 0.0146216 0.0106684 -0.066085 0.0982446 -0.0401513 0.107017 -0.0964509 -0.0175525 -0.0457837 -0.0161999 -0.0945211 0.0243856 0.0620358 -0.0351894 0.0637851 0.0228027 0.0644241 0.017828 0.0561844 0.00296387 -0.0168363 -0.0249248 0.0673323 0.0501248 0.024119 -0.0604849 -0.000740774 0.102488 0.00267627 -0.0153216 0.0727385 -0.082807 0.00919558 -0.0244942 0.129067 -0.096595 0.00436036 -0.0296444 0.120645 -0.105388 -0.110707 0.106938 -0.102128 0.098175 -0.0623294 0.018819 -0.112657 0.0346821 -0.0877126 -0.0725248 0.0180235 0.0388458 0.0891149 -0.0591121 -0.0711464 0.106195 0.0999898 -0.030197 0.00584373 0.0135063 0.0578995 -0.0478691 0.0991355 -0.0361609 0.134964 -0.102631 -0.111182 -0.02316 -0.12242 -0.0626582 0.124049 0.146755 -0.136737 0.0171498 -0.04428 -0.0930616 -0.132689 -0.118519 0.00869104 0.0753822 -0.0550814 -0.00423575 0.0329774 -0.0858077 0.087977 -0.0364425 -0.114582 0.00715823 0.0896217 0.0169878 0.0859568 0.0914845 -0.10187 0.108221 -0.125068 -0.108966 0.038481 0.102018 -0.0224848 0.0499177 -0.122446 0.0624086 0.116504 0.0527137 -0.0298917 0.00839328 0.0720101 -0.0314627 0.0163236 -0.0133554 0.0659171 -0.00410148 0.104043 -0.0991067 -0.0243527 -0.0657122 0.0107243 0.0757176 0.017631 -0.133205 0.0422703 -0.118123 0.0569308 -0.0174079 0.0667748 0.0939957 0.0602655 -0.0464808 0.0976442 0.106458 0.0108688 0.0664895 0.110793 -0.00250267 -0.0575531 -0.0617454 0.0279849 0.138033 -0.119528 0.0474327 -0.0576863 0.0782388 0.0559723 -0.111957 -0.0325455 0.0853061 -0.0669059 -0.00908438 -0.10199 0.0766835 0.0478842 -0.0431222 0.0436258 0.0418463 -0.0462095 0.109049 0.0204913 0.0607509 0.0586246 0.0412669 -0.0844959 -0.075075 0.00666325 0.0812541 -0.0387235 -0.0645651 0.0596985 0.0654744 -0.125295 0.0817767 -0.0460024 0.0217975 -0.156209 -0.0149061 0.00397029 -0.0652291 0.0271559 0.0272297 0.090929 -0.0355301 -0.0895068 -0.133471 -0.00800763 -0.0074048 0.145635 0.0305926 -0.1057 -0.105751 0.00959747 0.067824 -0.0228953 -0.031038 0.0657917 -0.0525387 -0.0840868 0.0329337 -0.000459554 0.0968903 -0.0142917 -0.0199081 0.051932 0.119366 -0.0843887 -0.0382066 0.0892651 0.0923327 0.0381744 0.0578263 0.104203 0.102228 -0.00580412 0.0747257 -0.0404483 -0.0125264 -0.0492084 -0.0895459 -0.15119 0.10008 0.0122669 0.00267471 0.0403381 0.112381 -0.00841693 -0.124064 0.0419602 -0.0272075 -0.0565683 0.0744204 -0.109392 0.0800005 0.102127 -0.0178763 -0.114592 0.0364293 -0.0488772 0.0524671 0.00968847 0.0455744 -0.0769884 -0.127375 0.0955065 -0.128971 0.0515847 -0.0332589 -0.0558642 -0.117678 0.0274811 -0.0834506 -0.0341374 -0.00412969 0.015479 -0.0774355 -0.0632971 -0.113098 